{"learner":{"attributes":{"scikit_learn":"{\"_estimator_type\": \"classifier\"}"},"feature_names":[],"feature_types":[],"gradient_booster":{"model":{"gbtree_model_param":{"num_parallel_tree":"1","num_trees":"1000"},"iteration_indptr":[0,5,10,15,20,25,30,35,40,45,50,55,60,65,70,75,80,85,90,95,100,105,110,115,120,125,130,135,140,145,150,155,160,165,170,175,180,185,190,195,200,205,210,215,220,225,230,235,240,245,250,255,260,265,270,275,280,285,290,295,300,305,310,315,320,325,330,335,340,345,350,355,360,365,370,375,380,385,390,395,400,405,410,415,420,425,430,435,440,445,450,455,460,465,470,475,480,485,490,495,500,505,510,515,520,525,530,535,540,545,550,555,560,565,570,575,580,585,590,595,600,605,610,615,620,625,630,635,640,645,650,655,660,665,670,675,680,685,690,695,700,705,710,715,720,725,730,735,740,745,750,755,760,765,770,775,780,785,790,795,800,805,810,815,820,825,830,835,840,845,850,855,860,865,870,875,880,885,890,895,900,905,910,915,920,925,930,935,940,945,950,955,960,965,970,975,980,985,990,995,1000],"tree_info":[0,1,2,3,4,0,1,2,3,4,0,1,2,3,4,0,1,2,3,4,0,1,2,3,4,0,1,2,3,4,0,1,2,3,4,0,1,2,3,4,0,1,2,3,4,0,1,2,3,4,0,1,2,3,4,0,1,2,3,4,0,1,2,3,4,0,1,2,3,4,0,1,2,3,4,0,1,2,3,4,0,1,2,3,4,0,1,2,3,4,0,1,2,3,4,0,1,2,3,4,0,1,2,3,4,0,1,2,3,4,0,1,2,3,4,0,1,2,3,4,0,1,2,3,4,0,1,2,3,4,0,1,2,3,4,0,1,2,3,4,0,1,2,3,4,0,1,2,3,4,0,1,2,3,4,0,1,2,3,4,0,1,2,3,4,0,1,2,3,4,0,1,2,3,4,0,1,2,3,4,0,1,2,3,4,0,1,2,3,4,0,1,2,3,4,0,1,2,3,4,0,1,2,3,4,0,1,2,3,4,0,1,2,3,4,0,1,2,3,4,0,1,2,3,4,0,1,2,3,4,0,1,2,3,4,0,1,2,3,4,0,1,2,3,4,0,1,2,3,4,0,1,2,3,4,0,1,2,3,4,0,1,2,3,4,0,1,2,3,4,0,1,2,3,4,0,1,2,3,4,0,1,2,3,4,0,1,2,3,4,0,1,2,3,4,0,1,2,3,4,0,1,2,3,4,0,1,2,3,4,0,1,2,3,4,0,1,2,3,4,0,1,2,3,4,0,1,2,3,4,0,1,2,3,4,0,1,2,3,4,0,1,2,3,4,0,1,2,3,4,0,1,2,3,4,0,1,2,3,4,0,1,2,3,4,0,1,2,3,4,0,1,2,3,4,0,1,2,3,4,0,1,2,3,4,0,1,2,3,4,0,1,2,3,4,0,1,2,3,4,0,1,2,3,4,0,1,2,3,4,0,1,2,3,4,0,1,2,3,4,0,1,2,3,4,0,1,2,3,4,0,1,2,3,4,0,1,2,3,4,0,1,2,3,4,0,1,2,3,4,0,1,2,3,4,0,1,2,3,4,0,1,2,3,4,0,1,2,3,4,0,1,2,3,4,0,1,2,3,4,0,1,2,3,4,0,1,2,3,4,0,1,2,3,4,0,1,2,3,4,0,1,2,3,4,0,1,2,3,4,0,1,2,3,4,0,1,2,3,4,0,1,2,3,4,0,1,2,3,4,0,1,2,3,4,0,1,2,3,4,0,1,2,3,4,0,1,2,3,4,0,1,2,3,4,0,1,2,3,4,0,1,2,3,4,0,1,2,3,4,0,1,2,3,4,0,1,2,3,4,0,1,2,3,4,0,1,2,3,4,0,1,2,3,4,0,1,2,3,4,0,1,2,3,4,0,1,2,3,4,0,1,2,3,4,0,1,2,3,4,0,1,2,3,4,0,1,2,3,4,0,1,2,3,4,0,1,2,3,4,0,1,2,3,4,0,1,2,3,4,0,1,2,3,4,0,1,2,3,4,0,1,2,3,4,0,1,2,3,4,0,1,2,3,4,0,1,2,3,4,0,1,2,3,4,0,1,2,3,4,0,1,2,3,4,0,1,2,3,4,0,1,2,3,4,0,1,2,3,4,0,1,2,3,4,0,1,2,3,4,0,1,2,3,4,0,1,2,3,4,0,1,2,3,4,0,1,2,3,4,0,1,2,3,4,0,1,2,3,4,0,1,2,3,4,0,1,2,3,4,0,1,2,3,4,0,1,2,3,4,0,1,2,3,4,0,1,2,3,4,0,1,2,3,4,0,1,2,3,4,0,1,2,3,4,0,1,2,3,4,0,1,2,3,4,0,1,2,3,4,0,1,2,3,4,0,1,2,3,4,0,1,2,3,4,0,1,2,3,4,0,1,2,3,4,0,1,2,3,4,0,1,2,3,4,0,1,2,3,4,0,1,2,3,4,0,1,2,3,4,0,1,2,3,4,0,1,2,3,4,0,1,2,3,4,0,1,2,3,4,0,1,2,3,4,0,1,2,3,4,0,1,2,3,4,0,1,2,3,4,0,1,2,3,4,0,1,2,3,4,0,1,2,3,4,0,1,2,3,4,0,1,2,3,4,0,1,2,3,4,0,1,2,3,4,0,1,2,3,4,0,1,2,3,4,0,1,2,3,4,0,1,2,3,4,0,1,2,3,4,0,1,2,3,4,0,1,2,3,4,0,1,2,3,4,0,1,2,3,4,0,1,2,3,4,0,1,2,3,4,0,1,2,3,4,0,1,2,3,4],"trees":[{"base_weights":[2.5992894E-1,-3.3707863E-1,1.7335562E0,4.1266793E-1,-5.5812603E-1,1.9393939E0,-4.639175E-2,-2.4390243E-1,1.7231637E-1,-5.863288E-1,5.2631576E-2,5.154639E-2,2.1181939E0,8.2474226E-1,-5.7239056E-2,-8.264463E-2,-6.1524045E-2,-3.8461536E-2,5.2631576E-2,6.1643835E-2,2.1985815E0,-3.508772E-2,1.5384614E-1,1.8518519E-2,-3.8461536E-2,2.2585437E0,5.2631576E-2,7.692307E-2,2.3222747E-1],"categories":[],"categories_nodes":[],"categories_segments":[],"categories_sizes":[],"default_left":[1,0,0,0,0,0,0,0,0,0,0,0,0,0,0,0,0,0,0,0,0,0,0,0,0,0,0,0,0],"id":0,"left_children":[1,3,5,7,9,11,-1,13,-1,15,-1,17,19,21,-1,23,-1,-1,-1,-1,25,-1,-1,-1,-1,27,-1,-1,-1],"loss_changes":[1.0956985E2,1.4980252E1,1.7129051E1,1.8351704E1,2.4237976E0,1.1029877E1,0E0,5.6533823E0,0E0,9.3764687E-1,0E0,1.0058851E0,2.2808685E0,3.795372E0,0E0,4.626686E-1,0E0,0E0,0E0,0E0,1.6389923E0,0E0,0E0,0E0,0E0,7.687683E-1,0E0,0E0,0E0],"parents":[2147483647,0,0,1,1,2,2,3,3,4,4,5,5,7,7,9,9,11,11,12,12,13,13,15,15,20,20,25,25],"right_children":[2,4,6,8,10,12,-1,14,-1,16,-1,18,20,22,-1,24,-1,-1,-1,-1,26,-1,-1,-1,-1,28,-1,-1,-1],"split_conditions":[3.7678874E0,1.933595E1,7.383264E-1,3.957999E1,9.9925E-1,2.7499895E1,-4.639175E-2,3.1139912E1,1.7231637E-1,-9.8734945E-1,5.2631576E-2,2.572118E1,-5.2523484E0,2.6871943E0,-5.7239056E-2,5.631943E1,-6.1524045E-2,-3.8461536E-2,5.2631576E-2,6.1643835E-2,3.397556E1,-3.508772E-2,1.5384614E-1,1.8518519E-2,-3.8461536E-2,-8.660254E-1,5.2631576E-2,7.692307E-2,2.3222747E-1],"split_indices":[15,478,7,65,176,65,0,280,0,6,0,0,248,49,0,3,0,0,0,0,2,0,0,0,0,497,0,0,0],"split_type":[0,0,0,0,0,0,0,0,0,0,0,0,0,0,0,0,0,0,0,0,0,0,0,0,0,0,0,0,0],"sum_hessian":[1.22880005E2,8.800001E1,3.488E1,1.9840002E1,6.816E1,3.2000004E1,2.88E0,1.3760001E1,6.0800004E0,6.6880005E1,1.2800001E0,2.88E0,2.9120003E1,2.88E0,1.0880001E1,3.8400002E0,6.3040005E1,1.6000001E0,1.2800001E0,1.9200001E0,2.7200003E1,1.2800001E0,1.6000001E0,2.2400002E0,1.6000001E0,2.5920002E1,1.2800001E0,1.6000001E0,2.4320002E1],"tree_param":{"num_deleted":"0","num_feature":"510","num_nodes":"29","size_leaf_vector":"1"}},{"base_weights":[2.217546E-1,1.7411225E0,-3.726015E-1,5.341246E-1,2.3885918E-1,8.5271317E-1,-4.4220868E-1,-4.7619045E-2,8.9494157E-1,-4.109589E-2,1.7283951E-1,2.4930747E-1,-5.746807E-1,-1.6853932E-1,1.26943E0,1.4285713E-1,-2.1352312E-1,-1.554404E-1,-6.1543167E-2,8.77193E-3,-3.508772E-2,1.7256637E-1,4.7619045E-1,-5.529954E-2,6.7415726E-1,7.751938E-2,-4.494382E-2,-4.109589E-2,1.4035088E-1,1.4035088E-1,-3.508772E-2,-2.0618556E-2,5.2631576E-2],"categories":[],"categories_nodes":[],"categories_segments":[],"categories_sizes":[],"default_left":[0,0,0,0,0,0,0,0,0,0,0,0,0,0,0,0,0,0,0,0,0,0,0,0,0,0,0,0,0,0,0,0,0],"id":1,"left_children":[1,3,5,7,-1,9,11,-1,13,-1,-1,15,17,19,21,-1,23,25,-1,-1,-1,-1,27,-1,29,31,-1,-1,-1,-1,-1,-1,-1],"loss_changes":[1.1222907E2,2.601397E1,8.022536E0,5.340146E0,0E0,6.420224E0,7.9737988E0,0E0,4.308076E0,0E0,0E0,8.186378E0,1.1351013E0,1.9712201E-1,1.9721422E0,0E0,3.7599E0,5.635804E-1,0E0,0E0,0E0,0E0,4.0319977E0,0E0,3.1539521E0,7.655196E-1,0E0,0E0,0E0,0E0,0E0,0E0,0E0],"parents":[2147483647,0,0,1,1,2,2,3,3,5,5,6,6,8,8,11,11,12,12,13,13,14,14,16,16,17,17,22,22,24,24,25,25],"right_children":[2,4,6,8,-1,10,12,-1,14,-1,-1,16,18,20,22,-1,24,26,-1,-1,-1,-1,28,-1,30,32,-1,-1,-1,-1,-1,-1,-1],"split_conditions":[-5.6670177E-1,7.425483E0,-9.9167734E-1,4.270604E1,2.3885918E-1,6.0319524E0,3.7988144E1,-4.7619045E-2,-8.9963084E-1,-4.109589E-2,1.7283951E-1,1.4618343E0,-6.354323E-1,3.352768E1,-8.0647993E-1,1.4285713E-1,3.8480755E1,3.9651245E1,-6.1543167E-2,8.77193E-3,-3.508772E-2,1.7256637E-1,-5E-1,-5.529954E-2,5.607286E0,3.954667E1,-4.494382E-2,-4.109589E-2,1.4035088E-1,1.4035088E-1,-3.508772E-2,-2.0618556E-2,5.2631576E-2],"split_indices":[499,205,7,54,0,35,11,0,261,0,0,434,6,0,363,0,283,0,0,0,0,0,106,0,13,0,0,0,0,0,0,0,0],"split_type":[0,0,0,0,0,0,0,0,0,0,0,0,0,0,0,0,0,0,0,0,0,0,0,0,0,0,0,0,0,0,0,0,0],"sum_hessian":[1.22560005E2,3.3920002E1,8.864001E1,1.24800005E1,2.1440002E1,4.1600003E0,8.448E1,3.2000003E0,9.280001E0,1.9200001E0,2.2400002E0,1.3440001E1,7.104001E1,2.5600002E0,6.7200003E0,3.2000003E0,1.0240001E1,6.7200003E0,6.432001E1,1.2800001E0,1.2800001E0,3.5200002E0,3.2000003E0,7.6800003E0,2.5600002E0,4.1600003E0,2.5600002E0,1.9200001E0,1.2800001E0,1.2800001E0,1.2800001E0,2.88E0,1.2800001E0],"tree_param":{"num_deleted":"0","num_feature":"510","num_nodes":"33","size_leaf_vector":"1"}},{"base_weights":[-2.528548E-1,-5.988024E-1,1.2393162E0,-6.0857255E-2,8.77193E-3,-1.7412935E-1,1.8581907E0,7.692307E-2,-5.279503E-2,-3.508772E-2,2.0689654E0,-0E0,2.31454E-1],"categories":[],"categories_nodes":[],"categories_segments":[],"categories_sizes":[],"default_left":[0,0,0,0,0,0,0,0,0,0,0,0,0],"id":2,"left_children":[1,3,5,-1,-1,7,9,-1,-1,-1,11,-1,-1],"loss_changes":[6.4029816E1,7.254677E-1,2.079261E1,0E0,0E0,3.0897112E0,8.343422E0,0E0,0E0,0E0,7.6619263E0,0E0,0E0],"parents":[2147483647,0,0,1,1,2,2,5,5,6,6,10,10],"right_children":[2,4,6,-1,-1,8,10,-1,-1,-1,12,-1,-1],"split_conditions":[7.611043E-1,1.0729853E1,3.776731E1,-6.0857255E-2,8.77193E-3,1.393455E1,3.6465183E1,7.692307E-2,-5.279503E-2,-3.508772E-2,-5.4524046E-1,-0E0,2.31454E-1],"split_indices":[7,33,85,0,0,138,136,0,0,0,6,0,0],"split_type":[0,0,0,0,0,0,0,0,0,0,0,0,0],"sum_hessian":[1.21600006E2,9.9200005E1,2.2400002E1,9.7920006E1,1.2800001E0,7.0400004E0,1.5360001E1,1.6000001E0,5.4400005E0,1.2800001E0,1.4080001E1,1.6000001E0,1.24800005E1],"tree_param":{"num_deleted":"0","num_feature":"510","num_nodes":"13","size_leaf_vector":"1"}},{"base_weights":[2.0456707E-1,-4.0567443E-1,1.2489307E0,-5.509289E-1,9.513742E-2,2.3758864E-1,-4.3967277E-1,9.6491225E-2,-5.9843034E-1,-3.3546326E-1,8.1081074E-1,3.0927834E-1,-5.8752995E-2,8.77193E-3,-6.1456244E-2,3.8461536E-2,-4.7619045E-1,1.5979381E-1,-4.4247787E-2,-3.8461536E-2,9.6491225E-2,-5.405405E-2,-2.6548672E-1,-4.3209877E-2,5.2631576E-2,8.77193E-3,-4.3209877E-2],"categories":[],"categories_nodes":[],"categories_segments":[],"categories_sizes":[],"default_left":[0,0,0,0,0,0,0,0,0,0,0,0,0,0,0,0,0,0,0,0,0,0,0,0,0,0,0],"id":3,"left_children":[1,3,5,7,9,-1,11,-1,13,15,17,19,-1,-1,-1,-1,21,-1,23,-1,-1,-1,25,-1,-1,-1,-1],"loss_changes":[8.0884705E1,5.8982134E0,9.002802E1,5.0734043E0,6.1025624E0,0E0,2.3477418E0,0E0,7.308903E-1,1.4518601E0,5.051202E0,2.1362882E0,0E0,0E0,0E0,0E0,4.555702E-3,0E0,1.2276677E0,0E0,0E0,0E0,3.03898E-1,0E0,0E0,0E0,0E0],"parents":[2147483647,0,0,1,1,2,2,3,3,4,4,6,6,8,8,9,9,10,10,11,11,16,16,18,18,22,22],"right_children":[2,4,6,8,10,-1,12,-1,14,16,18,20,-1,-1,-1,-1,22,-1,24,-1,-1,-1,26,-1,-1,-1,-1],"split_conditions":[2.2292662E1,8.660254E-1,1.3184247E0,2.6616533E1,1.9656612E1,2.3758864E-1,-3.7482142E0,9.6491225E-2,-6.350437E0,-1.2119758E0,5.5297432E1,2.595118E-1,-5.8752995E-2,8.77193E-3,-6.1456244E-2,3.8461536E-2,3.9598957E1,1.5979381E-1,2.035694E1,-3.8461536E-2,9.6491225E-2,-5.405405E-2,3.9703533E1,-4.3209877E-2,5.2631576E-2,8.77193E-3,-4.3209877E-2],"split_indices":[393,481,117,201,274,0,234,0,10,509,343,7,0,0,0,0,0,0,2,0,0,0,0,0,0,0,0],"split_type":[0,0,0,0,0,0,0,0,0,0,0,0,0,0,0,0,0,0,0,0,0,0,0,0,0,0,0],"sum_hessian":[1.2512001E2,7.936001E1,4.5760002E1,6.1440002E1,1.7920002E1,2.7200003E1,1.8560001E1,1.2800001E0,6.0160004E1,1.152E1,6.4000006E0,2.88E0,1.5680001E1,1.2800001E0,5.8880005E1,1.6000001E0,9.920001E0,2.88E0,3.5200002E0,1.6000001E0,1.2800001E0,6.4000006E0,3.5200002E0,2.2400002E0,1.2800001E0,1.2800001E0,2.2400002E0],"tree_param":{"num_deleted":"0","num_feature":"510","num_nodes":"27","size_leaf_vector":"1"}},{"base_weights":[-5.278547E-1,-5.8795255E-1,7.843137E-1,1.2396694E-1,-6.1157024E-1,-4.3209877E-2,1.5979381E-1,-4.494382E-2,9.6491225E-2,8.77193E-3,-6.197795E-2],"categories":[],"categories_nodes":[],"categories_segments":[],"categories_sizes":[],"default_left":[0,0,0,0,0,0,0,0,0,0,0],"id":4,"left_children":[1,3,5,7,9,-1,-1,-1,-1,-1,-1],"loss_changes":[1.0709591E1,2.174858E0,6.74745E0,2.7675278E0,7.489853E-1,0E0,0E0,0E0,0E0,0E0,0E0],"parents":[2147483647,0,0,1,1,2,2,3,3,4,4],"right_children":[2,4,6,8,10,-1,-1,-1,-1,-1,-1],"split_conditions":[2.906513E1,-5.669398E0,7.829801E-1,-1.8369701E-16,3.527358E0,-4.3209877E-2,1.5979381E-1,-4.494382E-2,9.6491225E-2,8.77193E-3,-6.197795E-2],"split_indices":[478,384,7,5,154,0,0,0,0,0,0],"split_type":[0,0,0,0,0,0,0,0,0,0,0],"sum_hessian":[1.2896E2,1.2384001E2,5.1200004E0,3.8400002E0,1.2000001E2,2.2400002E0,2.88E0,2.5600002E0,1.2800001E0,1.2800001E0,1.1872001E2],"tree_param":{"num_deleted":"0","num_feature":"510","num_nodes":"11","size_leaf_vector":"1"}},{"base_weights":[2.4961665E-1,-3.0174223E-1,1.373915E0,-4.0361884E-1,1.7018439E-1,1.5562251E0,-4.8415896E-2,1.6448806E-1,-5.7680047E-1,-2.1229705E-1,1.6942573E0,-4.8714533E-1,9.679906E-1,-1.11300156E-1,-6.059267E-2,1.7269919E-2,-4.1577365E-2,2.0074858E-1,1.8356317E0,1.7163822E-2,-5.625834E-2,-3.9707895E-2,1.3344831E0,1.0664117E-2,-3.7460934E-2,8.940337E-2,-4.1912477E-2,1.7068671E-2,1.8820962E0,1.6472386E-1,6.787901E-2,4.6912547E-2,1.9288719E-1],"categories":[],"categories_nodes":[],"categories_segments":[],"categories_sizes":[],"default_left":[0,0,0,0,0,0,0,0,0,0,0,0,0,0,0,0,0,0,0,0,0,0,0,0,0,0,0,0,0,0,0,0,0],"id":5,"left_children":[1,3,5,7,-1,9,-1,11,13,15,17,19,21,23,-1,-1,-1,25,27,-1,-1,-1,29,-1,-1,-1,-1,-1,31,-1,-1,-1,-1],"loss_changes":[8.245022E1,1.8978737E1,1.5565056E1,8.564504E0,0E0,1.0137688E1,0E0,1.1409183E1,8.300686E-1,3.6859414E-1,7.500145E0,7.028775E-1,5.37745E0,3.339374E-1,0E0,0E0,0E0,2.2421343E0,2.302925E0,0E0,0E0,0E0,4.9537754E-1,0E0,0E0,0E0,0E0,0E0,1.2696075E0,0E0,0E0,0E0,0E0],"parents":[2147483647,0,0,1,1,2,2,3,3,5,5,7,7,8,8,9,9,10,10,11,11,12,12,13,13,17,17,18,18,22,22,28,28],"right_children":[2,4,6,8,-1,10,-1,12,14,16,18,20,22,24,-1,-1,-1,26,28,-1,-1,-1,30,-1,-1,-1,-1,-1,32,-1,-1,-1,-1],"split_conditions":[3.7678874E0,4.7241478E1,7.611043E-1,1.9363718E1,1.7018439E-1,4.024329E0,-4.8415896E-2,3.857093E1,-9.8734945E-1,-1.3707197E0,-7.41222E-1,2.7014908E1,-3.7951693E-1,5.631943E1,-6.059267E-2,1.7269919E-2,-4.1577365E-2,4.4312425E0,3.558941E1,1.7163822E-2,-5.625834E-2,-3.9707895E-2,7.611043E-1,1.0664117E-2,-3.7460934E-2,8.940337E-2,-4.1912477E-2,1.7068671E-2,9.6651787E-1,1.6472386E-1,6.787901E-2,4.6912547E-2,1.9288719E-1],"split_indices":[117,501,7,461,0,341,0,425,6,30,6,85,163,3,0,0,0,148,309,0,0,0,262,0,0,0,0,0,417,0,0,0,0],"split_type":[0,0,0,0,0,0,0,0,0,0,0,0,0,0,0,0,0,0,0,0,0,0,0,0,0,0,0,0,0,0,0,0,0],"sum_hessian":[1.3133864E2,8.8613815E1,4.2724834E1,8.508598E1,3.527826E0,3.9055267E1,3.6695635E0,1.9889723E1,6.5196266E1,2.788601E0,3.626667E1,1.1200191E1,8.689531E0,4.123007E0,6.1073257E1,1.0165167E0,1.7720842E0,3.3453803E0,3.2921288E1,1.0197468E0,1.0180444E1,1.8215126E0,6.868019E0,2.5813866E0,1.5416204E0,1.3703995E0,1.9749807E0,1.0206897E0,3.1900599E1,3.6261778E0,3.2418413E0,1.3756344E0,3.0524963E1],"tree_param":{"num_deleted":"0","num_feature":"510","num_nodes":"33","size_leaf_vector":"1"}},{"base_weights":[2.2986957E-1,1.395693E0,-4.6182606E-1,3.393261E-1,1.9245185E-1,-5.082035E-1,8.994754E-2,-9.669044E-2,9.1205513E-1,6.730508E-2,-5.3227365E-1,-4.0456146E-1,4.6000358E-1,1.224898E0,-3.4837943E-2,-5.5661345E-1,4.8333608E-2,-5.238672E-2,1.6969923E-2,1.9027475E-2,6.6207714E-2,1.6357669E-1,2.4055166E-2,-5.815971E-1,1.9127794E-2,5.1807286E-4,-6.0794886E-2],"categories":[],"categories_nodes":[],"categories_segments":[],"categories_sizes":[],"default_left":[0,0,0,0,0,0,0,0,0,0,0,0,0,0,0,0,0,0,0,0,0,0,0,0,0,0,0],"id":6,"left_children":[1,3,5,7,-1,9,-1,11,13,-1,15,17,19,21,-1,23,-1,-1,-1,-1,-1,-1,-1,25,-1,-1,-1],"loss_changes":[1.03286354E2,2.5963852E1,5.548111E0,4.3606515E0,0E0,2.5936604E0,0E0,2.005927E0,3.3805704E0,0E0,2.1875076E0,5.937716E-1,1.0561657E-1,2.1232758E0,0E0,1.5361176E0,0E0,0E0,0E0,0E0,0E0,0E0,0E0,1.1479969E0,0E0,0E0,0E0],"parents":[2147483647,0,0,1,1,2,2,3,3,5,5,7,7,8,8,10,10,11,11,12,12,13,13,15,15,23,23],"right_children":[2,4,6,8,-1,10,-1,12,14,-1,16,18,20,22,-1,24,-1,-1,-1,-1,-1,-1,-1,26,-1,-1,-1],"split_conditions":[-4.0148798E-1,7.393202E0,8.547742E0,2.0223203E0,1.9245185E-1,3.660373E1,8.994754E-2,4.3665123E-1,5.4301734E0,6.730508E-2,8.769506E0,1.981223E1,3.9808105E1,2.7482508E1,-3.4837943E-2,9.962982E-1,4.8333608E-2,-5.238672E-2,1.6969923E-2,1.9027475E-2,6.6207714E-2,1.6357669E-1,2.4055166E-2,-6.354323E-1,1.9127794E-2,5.1807286E-4,-6.0794886E-2],"split_indices":[482,426,234,26,0,309,0,24,46,0,373,308,0,65,0,24,0,0,0,0,0,0,0,6,0,0,0],"split_type":[0,0,0,0,0,0,0,0,0,0,0,0,0,0,0,0,0,0,0,0,0,0,0,0,0,0,0],"sum_hessian":[1.26284744E2,4.6646416E1,7.963833E1,1.6109066E1,3.0537352E1,7.762059E1,2.0177357E0,9.6180525E0,6.4910126E0,1.0116416E0,7.660895E1,6.3690352E0,3.2490177E0,5.222876E0,1.2681363E0,7.525729E1,1.351655E0,5.3461065E0,1.0229285E0,2.2231526E0,1.0258648E0,3.2179255E0,2.0049505E0,7.303972E1,2.2175736E0,3.1737056E0,6.986601E1],"tree_param":{"num_deleted":"0","num_feature":"510","num_nodes":"27","size_leaf_vector":"1"}},{"base_weights":[-2.1764584E-1,-5.5902547E-1,1.0447134E0,-5.980418E-1,-8.232102E-2,-3.9554274E-1,1.4826969E0,-6.0881745E-2,9.786898E-3,-3.9805565E-2,1.0042204E-1,1.8103028E-2,-5.206514E-2,-3.79628E-2,1.6537863E0,1.764638E0,7.4059847E-3,7.593376E-3,1.8926448E-1],"categories":[],"categories_nodes":[],"categories_segments":[],"categories_sizes":[],"default_left":[0,0,0,0,0,0,0,0,0,0,0,0,0,0,0,0,0,0,0],"id":7,"left_children":[1,3,5,7,9,11,13,-1,-1,-1,-1,-1,-1,-1,15,17,-1,-1,-1],"loss_changes":[5.4412766E1,1.791565E0,1.7578753E1,7.444191E-1,3.366238E0,6.04306E-1,7.276371E0,0E0,0E0,0E0,0E0,0E0,0E0,0E0,3.2485886E0,3.7447357E0,0E0,0E0,0E0],"parents":[2147483647,0,0,1,1,2,2,3,3,4,4,5,5,6,6,14,14,15,15],"right_children":[2,4,6,8,10,12,14,-1,-1,-1,-1,-1,-1,-1,16,18,-1,-1,-1],"split_conditions":[7.611043E-1,8.660254E-1,3.7298435E1,9.782656E0,3.9938828E1,1.176223E1,3.8017044E1,-6.0881745E-2,9.786898E-3,-3.9805565E-2,1.0042204E-1,1.8103028E-2,-5.206514E-2,-3.79628E-2,2.8501894E0,-5.5958927E-1,7.4059847E-3,7.593376E-3,1.8926448E-1],"split_indices":[7,226,195,271,0,308,116,0,0,0,0,0,0,0,349,6,0,0,0],"split_type":[0,0,0,0,0,0,0,0,0,0,0,0,0,0,0,0,0,0,0],"sum_hessian":[1.2390898E2,9.797167E1,2.593731E1,9.0324455E1,7.6472144E0,6.0708733E0,1.9866436E1,8.907042E1,1.2540395E0,6.416355E0,1.2308595E0,1.0027297E0,5.0681434E0,1.5689852E0,1.8297451E1,1.6988304E1,1.309146E0,1.309267E0,1.5679037E1],"tree_param":{"num_deleted":"0","num_feature":"510","num_nodes":"19","size_leaf_vector":"1"}},{"base_weights":[1.7620614E-1,-4.0982315E-1,1.0777571E0,-5.417234E-1,5.0503325E-2,1.9071494E-1,-5.2910525E-1,-5.7310754E-1,6.747786E-2,-3.9191395E-1,6.609242E-1,1.8164884E-2,-5.809462E-2,7.688311E-2,-6.0552556E-2,5.0601095E-2,-5.592485E-2,2.3699537E-1,1.4139712E-1,5.4437276E-2,-3.7088193E-2,6.923239E-1,-4.303841E-2,8.739334E-2,2.9062122E-2],"categories":[],"categories_nodes":[],"categories_segments":[],"categories_sizes":[],"default_left":[0,0,0,0,0,0,0,0,0,0,0,0,0,0,0,0,0,0,0,0,0,0,0,0,0],"id":8,"left_children":[1,3,5,7,9,-1,11,13,-1,15,17,-1,-1,19,-1,-1,-1,21,-1,-1,-1,23,-1,-1,-1],"loss_changes":[6.8866425E1,4.8370295E0,6.937191E1,2.7407207E0,5.2706165E0,0E0,7.778177E-1,1.3244781E0,0E0,1.993927E0,2.2731583E0,0E0,0E0,9.907194E-1,0E0,0E0,0E0,2.2515357E0,0E0,0E0,0E0,5.2774906E-2,0E0,0E0,0E0],"parents":[2147483647,0,0,1,1,2,2,3,3,4,4,6,6,7,7,9,9,10,10,13,13,17,17,21,21],"right_children":[2,4,6,8,10,-1,12,14,-1,16,18,-1,-1,20,-1,-1,-1,22,-1,-1,-1,24,-1,-1,-1],"split_conditions":[2.2247602E1,8.660254E-1,1.5805464E0,8.785624E0,3.946824E1,1.9071494E-1,4.025792E0,3.804657E1,6.747786E-2,5.2795982E1,7.403532E0,1.8164884E-2,-5.809462E-2,-4.7709475E0,-6.0552556E-2,5.0601095E-2,-5.592485E-2,4.0121834E1,1.4139712E-1,5.4437276E-2,-3.7088193E-2,2.010722E1,-4.303841E-2,8.739334E-2,2.9062122E-2],"split_indices":[410,481,134,390,331,0,375,139,0,496,443,0,0,149,0,0,0,17,0,0,0,2,0,0,0],"split_type":[0,0,0,0,0,0,0,0,0,0,0,0,0,0,0,0,0,0,0,0,0,0,0,0,0],"sum_hessian":[1.2851007E2,7.821434E1,5.0295734E1,6.065707E1,1.7557274E1,3.3049923E1,1.7245811E1,5.964714E1,1.0099304E0,1.0387003E1,7.17027E0,1.0021471E0,1.6243664E1,2.7683957E0,5.6878742E1,1.3136971E0,9.073306E0,5.428822E0,1.7414478E0,1.2488141E0,1.5195814E0,3.204876E0,2.2239463E0,1.3974962E0,1.8073796E0],"tree_param":{"num_deleted":"0","num_feature":"510","num_nodes":"25","size_leaf_vector":"1"}},{"base_weights":[-5.0622237E-1,-5.5974495E-1,5.144281E-1,-6.0981847E-2,-9.391258E-2,1.5248585E-1,-4.7050435E-2,1.3212503E-1,-3.847075E-1,5.115508E-2,-5.545481E-2],"categories":[],"categories_nodes":[],"categories_segments":[],"categories_sizes":[],"default_left":[0,0,0,0,0,0,0,0,0,0,0],"id":9,"left_children":[1,3,5,-1,7,-1,-1,-1,9,-1,-1],"loss_changes":[6.9969997E0,2.6758995E0,7.3261247E0,0E0,5.674877E0,0E0,0E0,0E0,1.9869148E0,0E0,0E0],"parents":[2147483647,0,0,1,1,2,2,4,4,8,8],"right_children":[2,4,6,-1,8,-1,-1,-1,10,-1,-1],"split_conditions":[2.968269E1,9.5237756E-1,-3.5698059E0,-6.0981847E-2,3.7441204E1,1.5248585E-1,-4.7050435E-2,1.3212503E-1,-1.180931E0,5.115508E-2,-5.545481E-2],"split_indices":[495,7,135,0,300,0,0,0,10,0,0],"split_type":[0,0,0,0,0,0,0,0,0,0,0],"sum_hessian":[1.21813835E2,1.16173325E2,5.6405087E0,1.0461852E2,1.1554809E1,2.5136247E0,3.1268837E0,1.3655814E0,1.0189227E1,1.3027251E0,8.886502E0],"tree_param":{"num_deleted":"0","num_feature":"510","num_nodes":"11","size_leaf_vector":"1"}},{"base_weights":[2.3041551E-1,-2.934412E-1,1.1803505E0,3.8402674E-1,-5.5226195E-1,1.3332422E0,-3.1196734E-1,1.0241641E0,-5.5286087E-2,-5.8210015E-1,6.09847E-2,1.3309792E-1,1.4846585E0,-4.687575E-2,1.7940855E-2,-4.5096923E-2,1.3362092E0,-2.9511708E-1,-5.966661E-2,-4.724255E-2,9.632652E-2,2.8572672E-3,1.539E0,1.4418586E0,1.2085875E-2,-4.5585077E-2,1.1284461E-2,6.2952847E-3,1.5873083E0,1.6231708E-1,6.0491063E-2,2.6493644E-2,1.6510935E-1],"categories":[],"categories_nodes":[],"categories_segments":[],"categories_sizes":[],"default_left":[0,0,0,0,0,0,0,0,0,0,0,0,0,0,0,0,0,0,0,0,0,0,0,0,0,0,0,0,0,0,0,0,0],"id":10,"left_children":[1,3,5,7,9,11,13,15,-1,17,-1,19,21,-1,-1,-1,23,25,-1,-1,-1,-1,27,29,-1,-1,-1,-1,31,-1,-1,-1,-1],"loss_changes":[6.740183E1,1.5581584E1,1.13895645E1,1.5451854E1,2.568447E0,7.7646484E0,4.908834E-1,7.5513725E0,0E0,8.6206436E-2,0E0,3.4747953E0,3.0267792E0,0E0,0E0,0E0,1.4580364E0,3.7993604E-1,0E0,0E0,0E0,0E0,2.5664062E0,7.790661E-1,0E0,0E0,0E0,0E0,2.613182E0,0E0,0E0,0E0,0E0],"parents":[2147483647,0,0,1,1,2,2,3,3,4,4,5,5,6,6,7,7,9,9,11,11,12,12,16,16,17,17,22,22,23,23,28,28],"right_children":[2,4,6,8,10,12,14,16,-1,18,-1,20,22,-1,-1,-1,24,26,-1,-1,-1,-1,28,30,-1,-1,-1,-1,32,-1,-1,-1,-1],"split_conditions":[3.9034197E0,7.3725424E0,7.611043E-1,7.383264E-1,2.7101265E1,-8.660254E-1,7.857955E0,1.2172366E1,-5.5286087E-2,-9.8734945E-1,6.09847E-2,4.530957E0,2.6815205E1,-4.687575E-2,1.7940855E-2,-4.5096923E-2,-3.488336E-1,-9.9325687E-1,-5.966661E-2,-4.724255E-2,9.632652E-2,2.8572672E-3,9.734643E-1,5.702423E-1,1.2085875E-2,-4.5585077E-2,1.1284461E-2,6.2952847E-3,1.1347158E0,1.6231708E-1,6.0491063E-2,2.6493644E-2,1.6510935E-1],"split_indices":[219,494,7,7,359,497,103,410,0,6,0,97,150,0,0,0,84,6,0,0,0,0,230,7,0,0,0,0,468,0,0,0,0],"split_type":[0,0,0,0,0,0,0,0,0,0,0,0,0,0,0,0,0,0,0,0,0,0,0,0,0,0,0,0,0,0,0,0,0],"sum_hessian":[1.337497E2,8.6654045E1,4.709565E1,2.3820278E1,6.2833767E1,4.2815678E1,4.2799726E0,1.4095939E1,9.72434E0,6.1747444E1,1.086323E0,5.007181E0,3.7808495E1,3.2795513E0,1.0004213E0,2.3834462E0,1.1712493E1,4.009604E0,5.7737843E1,3.1445074E0,1.862674E0,1.4151508E0,3.6393345E1,1.0604297E1,1.1081961E0,2.7921374E0,1.2174667E0,1.2263297E0,3.5167015E1,7.9439635E0,2.6603332E0,1.8553872E0,3.3311626E1],"tree_param":{"num_deleted":"0","num_feature":"510","num_nodes":"33","size_leaf_vector":"1"}},{"base_weights":[2.53658E-1,1.2051318E0,-4.137272E-1,3.4585854E-1,1.5425118E0,2.0839563E-1,-5.072497E-1,7.743055E-2,1.335793E-1,8.537665E-1,1.630154E-1,-3.7611237E-1,1.0617311E0,2.2159976E-1,-5.497056E-1,-4.9742885E-2,3.750362E-1,-3.3350058E-2,1.1605082E-1,-5.014644E-2,1.1800482E-2,1.4618687E-1,6.527939E-3,-4.306013E-2,1.1473604E-1,-5.810217E-1,2.1182677E-2,9.8940724E-1,-1.781369E-1,-5.97659E-2,1.2411599E-2,1.3433135E-1,6.5333033E-3,-4.643553E-2,2.5809834E-2],"categories":[],"categories_nodes":[],"categories_segments":[],"categories_sizes":[],"default_left":[0,0,0,0,0,0,0,0,0,0,0,0,0,0,0,0,0,0,0,0,0,0,0,0,0,0,0,0,0,0,0,0,0,0,0],"id":11,"left_children":[1,3,5,7,9,11,13,15,-1,17,-1,19,21,23,25,-1,27,-1,-1,-1,-1,-1,-1,-1,-1,29,-1,31,33,-1,-1,-1,-1,-1,-1],"loss_changes":[7.948364E1,1.4406448E1,4.4025755E0,4.099951E0,8.245239E-1,5.566665E0,2.1174374E0,2.4971251E0,0E0,2.6611195E0,0E0,4.8573714E-1,1.6880612E0,3.0677254E0,1.5832806E0,0E0,3.3942938E0,0E0,0E0,0E0,0E0,0E0,0E0,0E0,0E0,7.6725197E-1,0E0,1.4293132E0,8.477803E-1,0E0,0E0,0E0,0E0,0E0,0E0],"parents":[2147483647,0,0,1,1,2,2,3,3,4,4,5,5,6,6,7,7,9,9,11,11,12,12,13,13,14,14,16,16,25,25,27,27,28,28],"right_children":[2,4,6,8,10,12,14,16,-1,18,-1,20,22,24,26,-1,28,-1,-1,-1,-1,-1,-1,-1,-1,30,-1,32,34,-1,-1,-1,-1,-1,-1],"split_conditions":[-4.0148798E-1,7.3957844E0,3.473293E1,4.4479523E0,-9.8734945E-1,1.7691187E1,-2.8023067E-1,4.615568E1,1.335793E-1,4.0487846E1,1.630154E-1,6.154E0,4.423129E0,-6.870528E-1,9.24027E0,-4.9742885E-2,1.9769264E1,-3.3350058E-2,1.1605082E-1,-5.014644E-2,1.1800482E-2,1.4618687E-1,6.527939E-3,-4.306013E-2,1.1473604E-1,1.0161686E1,2.1182677E-2,5.5082108E1,3.9860394E1,-5.97659E-2,1.2411599E-2,1.3433135E-1,6.5333033E-3,-4.643553E-2,2.5809834E-2],"split_indices":[482,358,34,32,6,342,414,445,0,0,0,205,12,6,205,0,19,0,0,0,0,0,0,0,0,358,0,105,0,0,0,0,0,0,0],"split_type":[0,0,0,0,0,0,0,0,0,0,0,0,0,0,0,0,0,0,0,0,0,0,0,0,0,0,0,0,0,0,0,0,0,0,0],"sum_hessian":[1.23386E2,5.053451E1,7.2851494E1,1.4818473E1,3.5716038E1,9.35992E0,6.3491573E1,1.2505683E1,2.3127897E0,5.244336E0,3.04717E1,5.8868537E0,3.4730654E0,3.2625818E0,6.0228992E1,4.036768E0,8.468915E0,1.0588275E0,4.1855087E0,4.6837654E0,1.2030884E0,2.1447427E0,1.3283226E0,2.2278926E0,1.0346892E0,5.8077724E1,2.1512654E0,3.6388705E0,4.8300447E0,5.6887917E1,1.1898103E0,2.3031237E0,1.3357468E0,2.8775764E0,1.9524682E0],"tree_param":{"num_deleted":"0","num_feature":"510","num_nodes":"35","size_leaf_vector":"1"}},{"base_weights":[-1.8795386E-1,-5.475083E-1,1.0204386E0,-5.8836764E-1,1.1125339E-2,-3.7709478E-1,1.3881139E0,-5.9959244E-2,1.156367E-2,-3.4385398E-1,9.269754E-2,1.7511865E-2,-5.0769407E-2,-3.36881E-2,1.5026771E0,-4.3133203E-2,-1.6839266E-1,1.7258966E-2,1.560982E0,1.3330801E-2,-3.643092E-2,1.7977843E-2,1.6240698E-1],"categories":[],"categories_nodes":[],"categories_segments":[],"categories_sizes":[],"default_left":[0,0,0,0,0,0,0,0,0,0,0,0,0,0,0,0,0,0,0,0,0,0,0],"id":12,"left_children":[1,3,5,7,9,11,13,-1,-1,15,-1,-1,-1,-1,17,-1,19,-1,21,-1,-1,-1,-1],"loss_changes":[5.3020405E1,2.1454525E0,1.4930412E1,7.5951576E-1,2.7142043E0,5.667934E-1,4.935211E0,0E0,0E0,2.0066798E-2,0E0,0E0,0E0,0E0,1.3745804E0,0E0,2.6429325E-1,0E0,1.466835E0,0E0,0E0,0E0,0E0],"parents":[2147483647,0,0,1,1,2,2,3,3,4,4,5,5,6,6,9,9,14,14,16,16,18,18],"right_children":[2,4,6,8,10,12,14,-1,-1,16,-1,-1,-1,-1,18,-1,20,-1,22,-1,-1,-1,-1],"split_conditions":[7.611043E-1,8.660254E-1,3.7298435E1,1.0729853E1,3.9938828E1,1.5159074E0,3.833755E1,-5.9959244E-2,1.156367E-2,7.3957844E0,9.269754E-2,1.7511865E-2,-5.0769407E-2,-3.36881E-2,-5.1770067E0,-4.3133203E-2,3.9703533E1,1.7258966E-2,-2.4492937E-16,1.3330801E-2,-3.643092E-2,1.7977843E-2,1.6240698E-1],"split_indices":[7,226,195,50,0,434,79,0,0,1,0,0,0,0,424,0,0,0,38,0,0,0,0],"split_type":[0,0,0,0,0,0,0,0,0,0,0,0,0,0,0,0,0,0,0,0,0,0,0],"sum_hessian":[1.1974517E2,9.270725E1,2.7037922E1,8.633905E1,6.368202E0,5.626392E0,2.141153E1,8.513003E1,1.2090192E0,5.039476E0,1.328726E0,1.0109411E0,4.615451E0,1.2126048E0,2.0198925E1,2.3897617E0,2.6497145E0,1.0145476E0,1.9184378E1,1.169034E0,1.4806805E0,1.0061457E0,1.8178232E1],"tree_param":{"num_deleted":"0","num_feature":"510","num_nodes":"23","size_leaf_vector":"1"}},{"base_weights":[1.8073833E-1,-3.988166E-1,9.881674E-1,-5.131761E-1,6.364864E-2,1.6122875E-1,-4.0045422E-1,-5.7910323E-1,5.4387563E-1,-3.7625897E-1,8.8948E-1,6.72064E-2,-5.69324E-2,-5.9683174E-2,1.2141225E-2,1.24949835E-1,-3.6657397E-2,1.6131493E-1,-5.44455E-2,1.13865115E-1,2.7115315E-2,-3.4509085E-2,6.36283E-2],"categories":[],"categories_nodes":[],"categories_segments":[],"categories_sizes":[],"default_left":[0,0,0,0,0,0,0,0,0,0,0,0,0,0,0,0,0,0,0,0,0,0,0],"id":13,"left_children":[1,3,5,7,9,-1,11,13,15,17,19,-1,-1,-1,-1,-1,-1,21,-1,-1,-1,-1,-1],"loss_changes":[5.8113567E1,3.8679295E0,4.556307E1,4.3743715E0,5.8809433E0,0E0,3.438417E0,7.5943184E-1,2.9862955E0,1.0520042E0,5.545378E-1,0E0,0E0,0E0,0E0,0E0,0E0,1.0163742E0,0E0,0E0,0E0,0E0,0E0],"parents":[2147483647,0,0,1,1,2,2,3,3,4,4,6,6,7,7,8,8,9,9,10,10,17,17],"right_children":[2,4,6,8,10,-1,12,14,16,18,20,-1,-1,-1,-1,-1,-1,22,-1,-1,-1,-1,-1],"split_conditions":[2.222507E1,8.660254E-1,9.323556E-1,6.233784E0,5.5162853E1,1.6122875E-1,4.177267E0,6.029669E0,4.6784787E0,5.2795982E1,7.403532E0,6.72064E-2,-5.69324E-2,-5.9683174E-2,1.2141225E-2,1.24949835E-1,-3.6657397E-2,3.904994E1,-5.44455E-2,1.13865115E-1,2.7115315E-2,-3.4509085E-2,6.36283E-2],"split_indices":[427,481,151,356,275,0,375,485,341,496,273,0,0,0,0,0,0,0,0,0,0,0,0],"split_type":[0,0,0,0,0,0,0,0,0,0,0,0,0,0,0,0,0,0,0,0,0,0,0],"sum_hessian":[1.2234553E2,7.151773E1,5.0827797E1,5.7250927E1,1.42668E1,3.4955757E1,1.5872037E1,5.4315487E1,2.9354424E0,9.663559E0,4.6032414E0,1.7537737E0,1.4118263E1,5.3119167E1,1.1963181E0,1.4439474E0,1.4914949E0,2.3127272E0,7.350832E0,2.6812553E0,1.9219859E0,1.2516624E0,1.0610647E0],"tree_param":{"num_deleted":"0","num_feature":"510","num_nodes":"23","size_leaf_vector":"1"}},{"base_weights":[-5.0484425E-1,9.6881025E-2,-5.474707E-1,-5.9151673E-1,2.3982513E-1,-6.009973E-2,1.1259361E-2,-4.7653675E-2,1.2805395E-1],"categories":[],"categories_nodes":[],"categories_segments":[],"categories_sizes":[],"default_left":[0,0,0,0,0,0,0,0,0],"id":14,"left_children":[1,-1,3,5,7,-1,-1,-1,-1],"loss_changes":[7.4897423E0,0E0,3.8978539E0,7.543106E-1,5.4189777E0,0E0,0E0,0E0,0E0],"parents":[2147483647,0,0,2,2,3,3,4,4],"right_children":[2,-1,4,6,8,-1,-1,-1,-1],"split_conditions":[-5.669398E0,9.6881025E-2,5.60228E0,9.976303E-1,1.6103173E0,-6.009973E-2,1.1259361E-2,-4.7653675E-2,1.2805395E-1],"split_indices":[316,0,302,313,489,0,0,0,0],"split_type":[0,0,0,0,0,0,0,0,0],"sum_hessian":[1.09788315E2,2.4755967E0,1.0731272E2,1.0186259E2,5.4501305E0,1.0065378E2,1.2088132E0,3.5491955E0,1.9009352E0],"tree_param":{"num_deleted":"0","num_feature":"510","num_nodes":"9","size_leaf_vector":"1"}},{"base_weights":[1.8354727E-1,-3.0803978E-1,1.0530751E0,-3.9047983E-1,1.2316888E-1,1.1824609E0,-2.8728855E-1,1.5941367E-1,-5.7339656E-1,1.468768E-1,1.3131061E0,-4.5178168E-2,1.75232E-2,9.879004E-1,-4.8321864E-1,-2.4413939E-1,-5.886167E-2,8.216294E-2,-4.539854E-2,-9.72197E-3,1.3895497E0,1.13490544E-1,5.9634615E-3,-5.566129E-2,1.7064106E-2,-4.1773904E-2,1.0875211E-2,1.4343697E0,6.1235796E-3,1.4615133E-1,4.2996205E-2],"categories":[],"categories_nodes":[],"categories_segments":[],"categories_sizes":[],"default_left":[0,0,0,0,0,0,0,0,0,0,0,0,0,0,0,0,0,0,0,0,0,0,0,0,0,0,0,0,0,0,0],"id":15,"left_children":[1,3,5,7,-1,9,11,13,15,17,19,-1,-1,21,23,25,-1,-1,-1,-1,27,-1,-1,-1,-1,-1,-1,29,-1,-1,-1],"loss_changes":[5.5173256E1,1.0984463E1,8.4160385E0,8.067881E0,0E0,5.579548E0,4.5228487E-1,1.1432705E1,1.5559006E-1,2.7672968E0,4.206032E0,0E0,0E0,1.2037268E0,6.8331885E-1,3.117673E-1,0E0,0E0,0E0,0E0,2.048523E0,0E0,0E0,0E0,0E0,0E0,0E0,3.1677246E-1,0E0,0E0,0E0],"parents":[2147483647,0,0,1,1,2,2,3,3,5,5,6,6,7,7,8,8,9,9,10,10,13,13,14,14,15,15,20,20,27,27],"right_children":[2,4,6,8,-1,10,12,14,16,18,20,-1,-1,22,24,26,-1,-1,-1,-1,28,-1,-1,-1,-1,-1,-1,30,-1,-1,-1],"split_conditions":[4.012247E0,6.653494E1,7.383264E-1,1.956649E1,1.2316888E-1,-8.660254E-1,7.136803E0,-5.160624E-1,-9.8734945E-1,4.4312425E0,2.6250137E1,-4.5178168E-2,1.75232E-2,1.9941E0,4.4435555E1,-9.9325687E-1,-5.886167E-2,8.216294E-2,-4.539854E-2,-9.72197E-3,5.2195487E0,1.13490544E-1,5.9634615E-3,-5.566129E-2,1.7064106E-2,-4.1773904E-2,1.0875211E-2,7.097968E0,6.1235796E-3,1.4615133E-1,4.2996205E-2],"split_indices":[236,462,7,308,0,497,103,193,6,148,147,0,0,9,187,6,0,0,0,0,472,0,0,0,0,0,0,253,0,0,0],"split_type":[0,0,0,0,0,0,0,0,0,0,0,0,0,0,0,0,0,0,0,0,0,0,0,0,0,0,0,0,0,0,0],"sum_hessian":[1.27316864E2,8.1746994E1,4.5569874E1,7.8301E1,3.4459896E0,4.166568E1,3.904196E0,1.9576784E1,5.8724216E1,4.9055066E0,3.6760174E1,2.8970816E0,1.0071144E0,8.317075E0,1.125971E1,3.3475227E0,5.5376694E1,2.1376095E0,2.7678971E0,1.8760855E0,3.4884087E1,6.9878354E0,1.3292391E0,1.0257102E1,1.0026083E0,2.1205766E0,1.2269462E0,3.3668213E1,1.2158724E0,3.2339165E1,1.3290503E0],"tree_param":{"num_deleted":"0","num_feature":"510","num_nodes":"31","size_leaf_vector":"1"}},{"base_weights":[1.500333E-1,9.888053E-1,-4.5448366E-1,2.8372052E-1,1.3575876E-1,6.572794E-1,-5.065949E-1,1.1389698E-1,-4.5453496E-2,-3.186615E-2,1.2328615E-1,-5.4741424E-1,6.0807835E-2,6.351897E-1,-2.4607643E-1,-7.775542E-2,-5.747911E-1,9.611981E-2,5.326369E-3,-5.2761376E-2,3.203706E-2,-4.5220222E-2,6.5036945E-2,1.1559914E-2,-5.903663E-2,-1.6456574E-2,5.281089E-2],"categories":[],"categories_nodes":[],"categories_segments":[],"categories_sizes":[],"default_left":[0,0,0,0,0,0,0,0,0,0,0,0,0,0,0,0,0,0,0,0,0,0,0,0,0,0,0],"id":16,"left_children":[1,3,5,7,-1,9,11,-1,13,-1,-1,15,-1,17,19,21,23,-1,-1,-1,25,-1,-1,-1,-1,-1,-1],"loss_changes":[6.123576E1,1.275301E1,4.409007E0,5.292646E0,0E0,2.406868E0,3.416401E0,0E0,2.1231897E0,0E0,0E0,8.026562E-1,0E0,6.2386036E-1,9.444014E-1,1.5990598E0,7.361698E-1,0E0,0E0,0E0,7.600313E-1,0E0,0E0,0E0,0E0,0E0,0E0],"parents":[2147483647,0,0,1,1,2,2,3,3,5,5,6,6,8,8,11,11,13,13,14,14,15,15,16,16,20,20],"right_children":[2,4,6,8,-1,10,12,-1,14,-1,-1,16,-1,18,20,22,24,-1,-1,-1,26,-1,-1,-1,-1,-1,-1],"split_conditions":[-4.0148798E-1,7.435813E0,4.024329E0,-1.6155429E0,1.3575876E-1,-1.180931E0,8.769506E0,1.1389698E-1,5.1824427E0,-3.186615E-2,1.2328615E-1,-2.8023067E-1,6.0807835E-2,9.992218E-2,1.5855938E-1,-2.9671282E-1,1.0717594E1,9.611981E-2,5.326369E-3,-5.2761376E-2,4.0095688E1,-4.5220222E-2,6.5036945E-2,1.1559914E-2,-5.903663E-2,-1.6456574E-2,5.281089E-2],"split_indices":[482,69,341,492,0,10,373,0,307,0,0,414,0,61,7,414,36,0,0,0,0,0,0,0,0,0,0],"split_type":[0,0,0,0,0,0,0,0,0,0,0,0,0,0,0,0,0,0,0,0,0,0,0,0,0,0,0],"sum_hessian":[1.18881935E2,4.952706E1,6.935487E1,1.7615967E1,3.1911093E1,2.5853298E0,6.676955E1,4.212111E0,1.3403855E1,1.1246952E0,1.4606347E0,6.490174E1,1.8678019E0,2.5583124E0,1.0845543E1,3.7863185E0,6.1115425E1,1.2219788E0,1.3363338E0,4.943782E0,5.901761E0,2.7506924E0,1.0356262E0,1.2066628E0,5.9908764E1,4.7052445E0,1.1965165E0],"tree_param":{"num_deleted":"0","num_feature":"510","num_nodes":"27","size_leaf_vector":"1"}},{"base_weights":[-1.8295948E-1,-5.4413337E-1,7.7752334E-1,-5.897991E-2,-1.2494487E-1,-5.3242344E-2,1.1321058E0,-4.1838706E-1,1.13959625E-1,-3.7791308E-2,1.2377123E0,-2.0089142E-1,-4.9907003E-2,1.3391666E0,-3.399714E-2,-3.90214E-2,1.3418652E-2,6.34721E-3,1.4169095E-1],"categories":[],"categories_nodes":[],"categories_segments":[],"categories_sizes":[],"default_left":[0,0,0,0,0,0,0,0,0,0,0,0,0,0,0,0,0,0,0],"id":17,"left_children":[1,3,5,-1,7,-1,9,11,-1,-1,13,15,-1,17,-1,-1,-1,-1,-1],"loss_changes":[3.9753002E1,1.5147705E0,1.518482E1,0E0,3.9724717E0,0E0,4.4586334E0,4.675424E-2,0E0,0E0,4.23666E0,3.0234495E-1,0E0,2.1315498E0,0E0,0E0,0E0,0E0,0E0],"parents":[2147483647,0,0,1,1,2,2,4,4,6,6,7,7,10,10,11,11,13,13],"right_children":[2,4,6,-1,8,-1,10,12,-1,-1,14,16,-1,18,-1,-1,-1,-1,-1],"split_conditions":[7.611043E-1,8.660254E-1,5.251015E1,-5.897991E-2,3.9985027E1,-5.3242344E-2,-5.4524046E-1,3.9598957E1,1.13959625E-1,-3.7791308E-2,4.4195285E0,3.949438E1,-4.9907003E-2,1.594063E1,-3.399714E-2,-3.90214E-2,1.3418652E-2,6.34721E-3,1.4169095E-1],"split_indices":[7,226,139,0,0,0,6,0,0,0,423,0,0,104,0,0,0,0,0],"split_type":[0,0,0,0,0,0,0,0,0,0,0,0,0,0,0,0,0,0,0],"sum_hessian":[1.1237497E2,8.198087E1,3.039409E1,7.356033E1,8.420546E0,6.367789E0,2.40263E1,7.377666E0,1.0428798E0,1.401949E0,2.2624352E1,2.9406075E0,4.4370584E0,2.1399424E1,1.2249278E0,1.7738287E0,1.1667787E0,1.3335432E0,2.0065882E1],"tree_param":{"num_deleted":"0","num_feature":"510","num_nodes":"19","size_leaf_vector":"1"}},{"base_weights":[1.7661169E-1,-3.7365922E-1,8.8570595E-1,-5.1707876E-1,1.2024328E-2,1.3992631E-1,-4.458049E-1,8.372324E-2,-5.7025754E-1,-1.2672468E-1,9.187293E-2,-5.5927403E-2,3.8722184E-2,-5.8811456E-2,1.6213143E-2,6.638594E-1,-2.8693855E-1,1.551488E-2,8.140732E-2,-4.767519E-1,1.6574758E-1,-5.4210212E-2,-2.4497231E-2,5.4798074E-2,-4.0099934E-2],"categories":[],"categories_nodes":[],"categories_segments":[],"categories_sizes":[],"default_left":[0,0,0,0,0,0,0,0,0,0,0,0,0,0,0,0,0,0,0,0,0,0,0,0,0],"id":18,"left_children":[1,3,5,7,9,-1,11,-1,13,15,-1,-1,-1,-1,-1,17,19,-1,-1,21,23,-1,-1,-1,-1],"loss_changes":[5.101574E1,4.0907736E0,3.9637733E1,4.3556957E0,2.7574503E0,0E0,1.7893126E0,0E0,7.80777E-1,2.6079369E0,0E0,0E0,0E0,0E0,0E0,1.4251351E-1,1.5026343E0,0E0,0E0,4.7920465E-2,1.4408114E0,0E0,0E0,0E0,0E0],"parents":[2147483647,0,0,1,1,2,2,3,3,4,4,6,6,8,8,9,9,15,15,16,16,19,19,20,20],"right_children":[2,4,6,8,10,-1,12,-1,14,16,-1,-1,-1,-1,-1,18,20,-1,-1,22,24,-1,-1,-1,-1],"split_conditions":[7.554607E0,8.660254E-1,1.3184247E0,2.6616533E1,7.4293566E0,1.3992631E-1,2.6517904E1,8.372324E-2,9.807078E0,5.2795982E1,9.187293E-2,-5.5927403E-2,3.8722184E-2,-5.8811456E-2,1.6213143E-2,3.904994E1,7.4125705E0,1.551488E-2,8.140732E-2,3.9598957E1,4.0174118E1,-5.4210212E-2,-2.4497231E-2,5.4798074E-2,-4.0099934E-2],"split_indices":[205,498,117,218,103,0,393,0,370,496,0,0,0,0,0,0,1,0,0,0,0,0,0,0,0],"split_type":[0,0,0,0,0,0,0,0,0,0,0,0,0,0,0,0,0,0,0,0,0,0,0,0,0],"sum_hessian":[1.2889638E2,7.2842354E1,5.605403E1,5.284925E1,1.9993101E1,4.0415203E1,1.5638829E1,1.4397304E0,5.140952E1,1.8085754E1,1.907346E0,1.4053221E1,1.5856082E0,5.0378197E1,1.0313234E0,2.5178254E0,1.5567929E1,1.0374099E0,1.4804155E0,1.0931246E1,4.6366835E0,7.4826455E0,3.4486003E0,2.7888808E0,1.8478025E0],"tree_param":{"num_deleted":"0","num_feature":"510","num_nodes":"25","size_leaf_vector":"1"}},{"base_weights":[-4.8710537E-1,7.040784E-1,-5.379174E-1,-3.6781393E-2,1.2903982E-1,-5.826791E-1,1.1648684E-1,-5.9248503E-2,1.1023282E-2,1.1017229E-1,-3.371893E-1,1.2033689E-2,-4.7752522E-2],"categories":[],"categories_nodes":[],"categories_segments":[],"categories_sizes":[],"default_left":[0,0,0,0,0,0,0,0,0,0,0,0,0],"id":19,"left_children":[1,3,5,-1,-1,7,9,-1,-1,-1,11,-1,-1],"loss_changes":[6.9476433E0,3.5373096E0,3.1334972E0,0E0,0E0,7.3202133E-1,3.7388701E0,0E0,0E0,0E0,4.3783003E-1,0E0,0E0],"parents":[2147483647,0,0,1,1,2,2,5,5,6,6,10,10],"right_children":[2,4,6,-1,-1,8,10,-1,-1,-1,12,-1,-1],"split_conditions":[-5.319569E0,6.123234E-17,4.613005E0,-3.6781393E-2,1.2903982E-1,4.6826887E0,3.340046E0,-5.9248503E-2,1.1023282E-2,1.1017229E-1,-4.445508E0,1.2033689E-2,-4.7752522E-2],"split_indices":[316,5,336,0,0,316,454,0,0,0,401,0,0],"split_type":[0,0,0,0,0,0,0,0,0,0,0,0,0],"sum_hessian":[1.075296E2,3.873224E0,1.0365638E2,1.501288E0,2.371936E0,9.712272E1,6.53366E0,9.5910355E1,1.2123649E0,1.6096318E0,4.924028E0,1.189266E0,3.734762E0],"tree_param":{"num_deleted":"0","num_feature":"510","num_nodes":"13","size_leaf_vector":"1"}},{"base_weights":[1.7083107E-1,-2.847238E-1,9.180132E-1,-3.675981E-1,1.1799818E-1,1.0063374E0,-4.3364566E-2,1.3665415E-1,-5.4688543E-1,-4.119154E-2,1.0715246E0,-4.7516483E-1,8.2293105E-1,-1.23092234E-1,-5.799408E-2,-3.2714017E-2,1.1126674E0,1.6743015E-2,-5.5132683E-2,-3.486572E-2,1.0460404E0,-3.9651204E-2,1.4763574E-2,1.1573629E0,-4.7420175E-3,1.2860982E-1,6.0305547E-2,1.6020065E-2,1.20509245E-1],"categories":[],"categories_nodes":[],"categories_segments":[],"categories_sizes":[],"default_left":[0,0,0,0,0,0,0,0,0,0,0,0,0,0,0,0,0,0,0,0,0,0,0,0,0,0,0,0,0],"id":20,"left_children":[1,3,5,7,-1,9,-1,11,13,-1,15,17,19,21,-1,-1,23,-1,-1,-1,25,-1,-1,27,-1,-1,-1,-1,-1],"loss_changes":[4.370779E1,1.0151678E1,6.236351E0,6.993778E0,0E0,4.6852417E0,0E0,9.15559E0,7.223282E-1,0E0,2.9054298E0,6.634376E-1,3.0320716E0,4.559655E-1,0E0,0E0,2.2911606E0,0E0,0E0,0E0,1.6256332E-1,0E0,0E0,1.7853622E0,0E0,0E0,0E0,0E0,0E0],"parents":[2147483647,0,0,1,1,2,2,3,3,5,5,7,7,8,8,10,10,11,11,12,12,13,13,16,16,20,20,23,23],"right_children":[2,4,6,8,-1,10,-1,12,14,-1,16,18,20,22,-1,-1,24,-1,-1,-1,26,-1,-1,28,-1,-1,-1,-1,-1],"split_conditions":[3.7678874E0,4.8057877E1,7.611043E-1,1.9318657E1,1.1799818E-1,3.589124E1,-4.3364566E-2,7.3596296E0,-9.844738E-1,-4.119154E-2,2.3885998E1,4.477885E1,1.523475E1,-4.7321387E-2,-5.799408E-2,-3.2714017E-2,9.479077E0,1.6743015E-2,-5.5132683E-2,-3.486572E-2,3.954667E1,-3.9651204E-2,1.4763574E-2,2.634679E1,-4.7420175E-3,1.2860982E-1,6.0305547E-2,1.6020065E-2,1.20509245E-1],"split_indices":[15,323,7,495,0,139,0,307,23,0,25,479,274,7,0,0,169,0,0,0,0,0,0,399,0,0,0,0,0],"split_type":[0,0,0,0,0,0,0,0,0,0,0,0,0,0,0,0,0,0,0,0,0,0,0,0,0,0,0,0,0],"sum_hessian":[1.2663997E2,7.905767E1,4.75823E1,7.5532974E1,3.5246925E0,4.4903557E1,2.678745E0,1.9874107E1,5.565887E1,1.7394739E0,4.316408E1,1.0669668E1,9.204439E0,4.368999E0,5.128987E1,1.03479E0,4.212929E1,1.0036147E0,9.666054E0,1.3824135E0,7.8220253E0,1.9425352E0,2.4264638E0,4.0568626E1,1.5606654E0,3.8385978E0,3.9834275E0,2.052125E0,3.8516502E1],"tree_param":{"num_deleted":"0","num_feature":"510","num_nodes":"29","size_leaf_vector":"1"}},{"base_weights":[2.2571093E-1,9.239702E-1,-3.668436E-1,3.3268994E-1,1.2042022E0,2.5688273E-1,-5.151807E-1,1.19480595E-1,1.1727434E-1,1.231953E0,1.1340676E-2,-3.2074484E-1,1.0694231E0,4.1695785E-2,-5.4562044E-1,-1.0171382E-1,8.0581677E-1,3.5705443E-2,1.2553827E-1,-5.2138906E-2,6.004547E-2,1.522037E-1,-3.5576973E-2,-3.998753E-2,6.303062E-2,-5.805832E-2,-1.0138317E-1,-2.6931974E-1,8.70186E-2,1.0308828E-1,9.330829E-3,5.5086434E-2,-4.4464666E-2,-5.4649707E-2,1.5314561E-2],"categories":[],"categories_nodes":[],"categories_segments":[],"categories_sizes":[],"default_left":[0,0,0,0,0,0,0,0,0,0,0,0,0,0,0,0,0,0,0,0,0,0,0,0,0,0,0,0,0,0,0,0,0,0,0],"id":21,"left_children":[1,3,5,7,9,11,13,15,-1,17,-1,19,21,23,25,27,29,-1,-1,-1,-1,-1,-1,-1,-1,-1,31,33,-1,-1,-1,-1,-1,-1,-1],"loss_changes":[5.3762123E1,9.467564E0,6.6607847E0,3.5372787E0,1.0718536E0,7.019101E0,9.946785E-1,2.737042E0,0E0,3.497696E-1,0E0,1.9919522E0,4.50284E0,1.2658869E0,7.8663063E-1,2.5335293E0,6.0534716E-1,0E0,0E0,0E0,0E0,0E0,0E0,0E0,0E0,0E0,1.4054376E0,1.5827749E0,0E0,0E0,0E0,0E0,0E0,0E0,0E0],"parents":[2147483647,0,0,1,1,2,2,3,3,4,4,5,5,6,6,7,7,9,9,11,11,12,12,13,13,14,14,15,15,16,16,26,26,27,27],"right_children":[2,4,6,8,10,12,14,16,-1,18,-1,20,22,24,26,28,30,-1,-1,-1,-1,-1,-1,-1,-1,-1,32,34,-1,-1,-1,-1,-1,-1,-1],"split_conditions":[-4.0148798E-1,7.411279E0,3.7967842E1,2.1157725E0,7.5520244E0,3.3632076E1,-2.8023067E-1,7.420318E0,1.1727434E-1,-9.9887973E-1,1.1340676E-2,6.124074E0,4.4644703E1,-6.8077344E-1,6.4368477E0,4.4400916E0,2.0309992E1,3.5705443E-2,1.2553827E-1,-5.2138906E-2,6.004547E-2,1.522037E-1,-3.5576973E-2,-3.998753E-2,6.303062E-2,-5.805832E-2,-4.2381287E0,-6.016241E-1,8.70186E-2,1.0308828E-1,9.330829E-3,5.5086434E-2,-4.4464666E-2,-5.4649707E-2,1.5314561E-2],"split_indices":[482,392,201,217,239,195,431,52,0,74,0,214,280,6,16,284,2,0,0,0,0,0,0,0,0,0,489,499,0,0,0,0,0,0,0],"split_type":[0,0,0,0,0,0,0,0,0,0,0,0,0,0,0,0,0,0,0,0,0,0,0,0,0,0,0,0,0,0,0,0,0,0,0],"sum_hessian":[1.2811734E2,5.8556156E1,6.956119E1,1.9531826E1,3.902433E1,1.3224247E1,5.633694E1,1.6489058E1,3.0427675E0,3.7929947E1,1.094383E0,8.083218E0,5.1410294E0,2.9006963E0,5.3436245E1,1.3114334E1,3.3747241E0,1.412814E0,3.651713E1,6.993903E0,1.0893145E0,3.8502975E0,1.2907321E0,1.840564E0,1.0601323E0,4.9252968E1,4.1832743E0,1.1801958E1,1.3123761E0,2.2250445E0,1.1496797E0,1.2339035E0,2.9493709E0,6.9491E0,4.852858E0],"tree_param":{"num_deleted":"0","num_feature":"510","num_nodes":"35","size_leaf_vector":"1"}},{"base_weights":[-2.1375401E-1,-5.3756213E-1,7.191974E-1,-5.702574E-1,-1.4344306E-1,-3.873061E-1,1.025297E0,-5.8284916E-2,1.2952998E-2,-3.6158705E-1,6.2317144E-2,-5.1072653E-2,1.7864991E-2,1.1924384E0,-2.6271397E-2,-1.6231593E-1,-4.504562E-2,8.041595E-3,1.2564081E-1,-4.1478414E-2,5.032737E-2,1.3535543E-2,-3.5912644E-2],"categories":[],"categories_nodes":[],"categories_segments":[],"categories_sizes":[],"default_left":[0,0,0,0,0,0,0,0,0,0,0,0,0,0,0,0,0,0,0,0,0,0,0],"id":22,"left_children":[1,3,5,7,9,11,13,-1,-1,15,-1,-1,-1,17,19,21,-1,-1,-1,-1,-1,-1,-1],"loss_changes":[3.407367E1,9.922581E-1,1.0273201E1,7.507324E-1,1.5165458E0,5.8328927E-1,4.0939484E0,0E0,0E0,4.4534385E-2,0E0,0E0,0E0,1.3192596E0,1.0622436E0,2.6023808E-1,0E0,0E0,0E0,0E0,0E0,0E0,0E0],"parents":[2147483647,0,0,1,1,2,2,3,3,4,4,5,5,6,6,9,9,13,13,14,14,15,15],"right_children":[2,4,6,8,10,12,14,-1,-1,16,-1,-1,-1,18,20,22,-1,-1,-1,-1,-1,-1,-1],"split_conditions":[7.611043E-1,8.660254E-1,5.2655247E1,1.0729853E1,7.415153E0,4.315451E1,3.4601374E0,-5.8284916E-2,1.2952998E-2,5.5261497E1,6.2317144E-2,-5.1072653E-2,1.7864991E-2,2.875963E-1,7.3725424E0,-7.295576E-1,-4.504562E-2,8.041595E-3,1.2564081E-1,-4.1478414E-2,5.032737E-2,1.3535543E-2,-3.5912644E-2],"split_indices":[7,209,139,33,1,238,471,0,0,3,0,0,0,287,324,6,0,0,0,0,0,0,0],"split_type":[0,0,0,0,0,0,0,0,0,0,0,0,0,0,0,0,0,0,0,0,0,0,0],"sum_hessian":[1.1051064E2,8.235183E1,2.8158812E1,7.5630745E1,6.7210846E0,6.044299E0,2.2114513E1,7.445808E1,1.172667E0,5.643524E0,1.0775604E0,5.0422916E0,1.0020074E0,1.8966003E1,3.1485097E0,2.61234E0,3.0311842E0,1.1544595E0,1.7811544E1,1.9410965E0,1.2074132E0,1.1640285E0,1.4483113E0],"tree_param":{"num_deleted":"0","num_feature":"510","num_nodes":"23","size_leaf_vector":"1"}},{"base_weights":[1.0588862E-1,-3.8907972E-1,7.3468465E-1,7.890304E-2,-4.2536113E-1,1.1856157E0,-5.5808075E-2,-5.457572E-1,-3.0103328E-2,-3.3359002E-2,1.23754196E-1,1.5700277E-2,-5.6344026E-1,4.1096658E-1,-2.4647214E-1,-5.815775E-2,1.368197E-2,-1.3014574E-1,7.573362E-2,-5.274808E-2,1.19590804E-1,1.5636759E-2,-3.3638548E-2,5.9543367E-2,-2.2783717E-2],"categories":[],"categories_nodes":[],"categories_segments":[],"categories_sizes":[],"default_left":[0,0,0,0,0,0,0,0,0,0,0,0,0,0,0,0,0,0,0,0,0,0,0,0,0],"id":23,"left_children":[1,3,5,-1,7,9,-1,11,13,-1,-1,-1,15,17,19,-1,-1,21,-1,-1,23,-1,-1,-1,-1],"loss_changes":[4.0040897E1,3.4185553E0,3.3660736E1,0E0,3.3442574E0,3.748806E0,0E0,7.604408E-1,1.7758864E0,0E0,0E0,0E0,7.522621E-1,1.2511952E0,1.3383594E0,0E0,0E0,2.4485236E-1,0E0,0E0,1.1605002E0,0E0,0E0,0E0,0E0],"parents":[2147483647,0,0,1,1,2,2,4,4,5,5,7,7,8,8,12,12,13,13,14,14,17,17,20,20],"right_children":[2,4,6,-1,8,10,-1,12,14,-1,-1,-1,16,18,20,-1,-1,22,-1,-1,24,-1,-1,-1,-1],"split_conditions":[2.211242E1,2.6616533E1,1.3184247E0,7.890304E-2,8.660254E-1,-1.1237696E0,-5.5808075E-2,-9.970012E-1,-9.0701383E-1,-3.3359002E-2,1.23754196E-1,1.5700277E-2,6.943343E0,-9.634706E-1,1E0,-5.815775E-2,1.368197E-2,-9.8292655E-1,7.573362E-2,-5.274808E-2,5.2795982E1,1.5636759E-2,-3.3638548E-2,5.9543367E-2,-2.2783717E-2],"split_indices":[495,218,117,0,481,305,0,364,6,0,0,0,100,6,430,0,0,6,0,0,496,0,0,0,0],"split_type":[0,0,0,0,0,0,0,0,0,0,0,0,0,0,0,0,0,0,0,0,0,0,0,0,0],"sum_hessian":[1.267336E2,7.112638E1,5.5607212E1,1.5051286E0,6.9621254E1,4.128828E1,1.4318932E1,5.3074062E1,1.6547192E1,1.1853098E0,4.010297E1,1.1093097E0,5.1964752E1,5.149831E0,1.139736E1,5.0818016E1,1.1467391E0,2.2535317E0,2.8962994E0,6.1982837E0,5.199076E0,1.0444174E0,1.2091143E0,1.8928144E0,3.306262E0],"tree_param":{"num_deleted":"0","num_feature":"510","num_nodes":"25","size_leaf_vector":"1"}},{"base_weights":[-4.8131222E-1,-5.389298E-1,5.296828E-1,-5.6648046E-1,5.4520166E-1,1.1454769E-1,-4.147502E-2,2.1090192E-1,-5.854882E-2,1.610822E-2,6.6084795E-2,-3.1511873E-2,6.544972E-2],"categories":[],"categories_nodes":[],"categories_segments":[],"categories_sizes":[],"default_left":[0,0,0,0,0,0,0,0,0,0,0,0,0],"id":24,"left_children":[1,3,5,7,9,-1,-1,11,-1,-1,-1,-1,-1],"loss_changes":[6.563204E0,3.3690224E0,4.1477995E0,1.6071167E0,2.8978229E-2,0E0,0E0,9.3697673E-1,0E0,0E0,0E0,0E0,0E0],"parents":[2147483647,0,0,1,1,2,2,3,3,4,4,7,7],"right_children":[2,4,6,8,10,-1,-1,12,-1,-1,-1,-1,-1],"split_conditions":[2.906513E1,9.986668E-1,6.016241E-1,3.8055046E0,5.132371E1,1.1454769E-1,-4.147502E-2,-2.4492937E-16,-5.854882E-2,1.610822E-2,6.6084795E-2,-3.1511873E-2,6.544972E-2],"split_indices":[478,245,6,154,190,0,0,4,0,0,0,0,0],"split_type":[0,0,0,0,0,0,0,0,0,0,0,0,0],"sum_hessian":[1.06770256E2,1.01455154E2,5.3151E0,9.940646E1,2.0486975E0,3.0884686E0,2.2266316E0,2.131617E0,9.727484E1,1.0277869E0,1.0209106E0,1.1077085E0,1.0239085E0],"tree_param":{"num_deleted":"0","num_feature":"510","num_nodes":"13","size_leaf_vector":"1"}},{"base_weights":[2.246743E-1,-3.547725E-1,7.25125E-1,4.7250324E-1,-5.351394E-1,9.011719E-1,-4.3990067E-1,-4.3192398E-2,8.0949396E-1,-9.699246E-2,-5.715082E-2,-4.845827E-2,1.0174252E0,1.6398802E-2,-5.270015E-2,4.909158E-1,1.0252112E-1,1.440237E-2,-3.729496E-2,-4.9159586E-2,5.496596E-1,-3.5461683E-2,1.0572236E0,1.0526003E-1,-4.5906536E-2,8.631381E-2,1.8178808E-3,1.7765363E-1,1.109131E0,-4.2429265E-2,8.132305E-2,7.0697563E-3,1.1319882E-1],"categories":[],"categories_nodes":[],"categories_segments":[],"categories_sizes":[],"default_left":[0,0,0,0,0,0,0,0,0,0,0,0,0,0,0,0,0,0,0,0,0,0,0,0,0,0,0,0,0,0,0,0,0],"id":25,"left_children":[1,3,5,7,9,11,13,-1,15,17,-1,19,21,-1,-1,23,-1,-1,-1,-1,25,-1,27,-1,-1,-1,-1,29,31,-1,-1,-1,-1],"loss_changes":[3.811966E1,9.381624E0,1.4832863E1,3.8492014E0,7.5242233E-1,6.8360596E0,6.0778415E-1,0E0,9.5499516E-2,3.9225307E-1,0E0,2.3003573E0,3.368145E0,0E0,0E0,3.3841646E0,0E0,0E0,0E0,0E0,6.06066E-1,0E0,2.2465744E0,0E0,0E0,0E0,0E0,1.9416772E0,1.1150284E0,0E0,0E0,0E0,0E0],"parents":[2147483647,0,0,1,1,2,2,3,3,4,4,5,5,6,6,8,8,9,9,11,11,12,12,15,15,20,20,22,22,27,27,28,28],"right_children":[2,4,6,8,10,12,14,-1,16,18,-1,20,22,-1,-1,24,-1,-1,-1,-1,26,-1,28,-1,-1,-1,-1,30,32,-1,-1,-1,-1],"split_conditions":[2.2544115E0,5.47322E1,7.611043E-1,3.927687E1,-9.8734945E-1,-4.9377555E-1,4.66767E1,-4.3192398E-2,3.9651245E1,5.631943E1,-5.715082E-2,4.4400916E0,2.3885998E1,1.6398802E-2,-5.270015E-2,3.954667E1,1.0252112E-1,1.440237E-2,-3.729496E-2,-4.9159586E-2,4.5444322E-1,-3.5461683E-2,4.024329E0,1.0526003E-1,-4.5906536E-2,8.631381E-2,1.8178808E-3,5.5404215E0,2.6606855E1,-4.2429265E-2,8.132305E-2,7.0697563E-3,1.1319882E-1],"split_indices":[474,496,7,0,6,6,207,0,0,3,0,114,25,0,0,0,0,0,0,0,13,0,341,0,0,0,0,392,439,0,0,0,0],"split_type":[0,0,0,0,0,0,0,0,0,0,0,0,0,0,0,0,0,0,0,0,0,0,0,0,0,0,0,0,0,0,0,0,0],"sum_hessian":[1.2956697E2,6.0179382E1,6.938759E1,1.04821205E1,4.9697258E1,6.047561E1,8.911982E0,2.768966E0,7.713155E0,4.090044E0,4.5607216E1,6.6595283E0,5.3816082E1,1.0121047E0,7.899877E0,4.4366727E0,3.2764819E0,2.4384437E0,1.6516004E0,3.9276674E0,2.731861E0,1.2940361E0,5.2522045E1,2.7202687E0,1.7164042E0,1.3258328E0,1.4060283E0,3.1732876E0,4.9348755E1,1.8004935E0,1.372794E0,1.1509843E0,4.8197773E1],"tree_param":{"num_deleted":"0","num_feature":"510","num_nodes":"33","size_leaf_vector":"1"}},{"base_weights":[1.5424593E-1,7.7621335E-1,-3.9043862E-1,2.0402274E-1,1.082572E-1,7.7254194E-1,-4.5657507E-1,7.2639173E-1,-1.0777125E-1,1.086451E-1,7.235147E-3,-4.9976236E-1,6.710881E-2,-3.862118E-2,1.0931891E-1,-3.0327642E-1,4.8902407E-1,4.7270864E-2,-5.295704E-1,-5.351451E-2,8.580017E-2,9.0771005E-2,-3.2977898E-2,-5.5949163E-1,1.07543394E-1,-2.0351185E-2,5.8513273E-2,-5.80145E-3,-5.753399E-2,-3.598274E-2,6.089267E-2],"categories":[],"categories_nodes":[],"categories_segments":[],"categories_sizes":[],"default_left":[0,0,0,0,0,0,0,0,0,0,0,0,0,0,0,0,0,0,0,0,0,0,0,0,0,0,0,0,0,0,0],"id":26,"left_children":[1,3,5,7,-1,9,11,13,15,-1,-1,17,-1,-1,-1,19,21,-1,23,-1,25,-1,-1,27,29,-1,-1,-1,-1,-1,-1],"loss_changes":[4.167102E1,9.83149E0,5.4110537E0,3.5358927E0,0E0,7.8082895E-1,3.3964539E0,3.7132058E0,1.8010155E0,0E0,0E0,2.021738E0,0E0,0E0,0E0,1.0641509E0,1.6288204E0,0E0,1.1994591E0,0E0,8.524411E-1,0E0,0E0,4.2157173E-1,1.0438627E0,0E0,0E0,0E0,0E0,0E0,0E0],"parents":[2147483647,0,0,1,1,2,2,3,3,5,5,6,6,7,7,8,8,11,11,15,15,16,16,18,18,20,20,23,23,24,24],"right_children":[2,4,6,8,-1,10,12,14,16,-1,-1,18,-1,-1,-1,20,22,-1,24,-1,26,-1,-1,28,30,-1,-1,-1,-1,-1,-1],"split_conditions":[-3.8566342E-1,7.408697E0,4.024329E0,1.384377E1,1.082572E-1,3.2048407E0,9.962982E-1,2.6871943E0,5.559351E1,1.086451E-1,7.235147E-3,3.9794235E0,6.710881E-2,-3.862118E-2,1.0931891E-1,4.3665123E-1,4.0258865E1,4.7270864E-2,4.870896E1,-5.351451E-2,1.9949507E1,9.0771005E-2,-3.2977898E-2,-6.551564E-1,2.8501894E0,-2.0351185E-2,5.8513273E-2,-5.80145E-3,-5.753399E-2,-3.598274E-2,6.089267E-2],"split_indices":[465,426,341,104,0,332,24,338,156,0,0,324,0,0,0,24,0,0,408,0,2,0,0,6,9,0,0,0,0,0,0],"split_type":[0,0,0,0,0,0,0,0,0,0,0,0,0,0,0,0,0,0,0,0,0,0,0,0,0,0,0,0,0,0,0],"sum_hessian":[1.2111004E2,5.63452E1,6.476484E1,2.0229055E1,3.6116142E1,2.9101472E0,6.185469E1,7.064207E0,1.3164849E1,1.6284366E0,1.2817105E0,6.0109432E1,1.7452574E0,1.738351E0,5.325856E0,1.0286803E1,2.8780458E0,1.3457769E0,5.8763657E1,6.210347E0,4.076456E0,1.8324573E0,1.0455885E0,5.6244057E1,2.5195978E0,2.95612E0,1.120336E0,1.8658117E0,5.4378246E1,1.4501514E0,1.0694463E0],"tree_param":{"num_deleted":"0","num_feature":"510","num_nodes":"31","size_leaf_vector":"1"}},{"base_weights":[-1.7684598E-1,-5.19094E-1,7.186417E-1,-5.6235677E-1,-1.1850316E-1,-5.1208295E-2,9.824623E-1,-5.753866E-2,1.5697166E-2,-4.1024037E-2,1.05472796E-1,-1.627682E-1,1.1003861E0,-3.5820454E-2,1.40718995E-2,1.5291892E-2,1.1372524E-1],"categories":[],"categories_nodes":[],"categories_segments":[],"categories_sizes":[],"default_left":[0,0,0,0,0,0,0,0,0,0,0,0,0,0,0,0,0],"id":27,"left_children":[1,3,5,7,9,-1,11,-1,-1,-1,-1,13,15,-1,-1,-1,-1],"loss_changes":[3.497005E1,1.358839E0,1.0774199E1,7.8360176E-1,3.6104267E0,0E0,3.7433643E0,0E0,0E0,0E0,0E0,2.4821442E-1,6.663933E-1,0E0,0E0,0E0,0E0],"parents":[2147483647,0,0,1,1,2,2,3,3,4,4,6,6,11,11,12,12],"right_children":[2,4,6,8,10,-1,12,-1,-1,-1,-1,14,16,-1,-1,-1,-1],"split_conditions":[7.935716E-1,5.842982E-1,3.7103817E1,9.054079E0,3.9985027E1,-5.1208295E-2,3.6655636E1,-5.753866E-2,1.5697166E-2,-4.1024037E-2,1.05472796E-1,3.565532E1,-5.4524046E-1,-3.5820454E-2,1.40718995E-2,1.5291892E-2,1.1372524E-1],"split_indices":[7,313,212,265,0,0,34,0,0,0,0,34,6,0,0,0,0],"split_type":[0,0,0,0,0,0,0,0,0,0,0,0,0,0,0,0,0],"sum_hessian":[1.1188547E2,8.125196E1,3.0633505E1,7.296781E1,8.284153E0,5.241384E0,2.539212E1,7.1866135E1,1.1016712E0,7.1552515E0,1.1289014E0,2.3350215E0,2.3057098E1,1.3106854E0,1.0243361E0,1.0563636E0,2.2000736E1],"tree_param":{"num_deleted":"0","num_feature":"510","num_nodes":"17","size_leaf_vector":"1"}},{"base_weights":[1.2792532E-1,-3.8042793E-1,7.087286E-1,-5.182443E-1,7.169541E-2,1.0979519E-1,-4.2443442E-1,7.5134486E-2,-5.7412297E-2,-2.5703198E-1,5.27975E-1,5.3198665E-2,-5.479094E-2,5.664741E-2,-4.2697933E-1,1.0092417E-1,9.48241E-2,-5.2041914E-2,-9.3755506E-2,-2.1847141E-1,6.1669257E-2,1.7588979E-2,-3.1491376E-2,4.162855E-3,-3.6698673E-2],"categories":[],"categories_nodes":[],"categories_segments":[],"categories_sizes":[],"default_left":[0,0,0,0,0,0,0,0,0,0,0,0,0,0,0,0,0,0,0,0,0,0,0,0,0],"id":28,"left_children":[1,3,5,7,9,-1,11,-1,-1,13,15,-1,-1,-1,17,-1,19,-1,21,23,-1,-1,-1,-1,-1],"loss_changes":[3.6057682E1,4.1052456E0,2.5572329E1,3.9896784E0,2.5551364E0,0E0,2.0953262E0,0E0,0E0,1.6481552E0,1.3806549E0,0E0,0E0,0E0,2.2830737E-1,0E0,9.246113E-1,0E0,2.4435635E-1,1.6041419E-1,0E0,0E0,0E0,0E0,0E0],"parents":[2147483647,0,0,1,1,2,2,3,3,4,4,6,6,9,9,10,10,14,14,16,16,18,18,19,19],"right_children":[2,4,6,8,10,-1,12,-1,-1,14,16,-1,-1,-1,18,-1,20,-1,22,24,-1,-1,-1,-1,-1],"split_conditions":[2.2315193E1,8.660254E-1,1.0003103E0,2.6616533E1,1.9656612E1,1.0979519E-1,4.6565256E0,7.5134486E-2,-5.7412297E-2,5.2129833E1,3.9985027E1,5.3198665E-2,-5.479094E-2,5.664741E-2,3.9598957E1,1.0092417E-1,4.0409412E1,-5.2041914E-2,1.9859385E1,5.583387E1,6.1669257E-2,1.7588979E-2,-3.1491376E-2,4.162855E-3,-3.6698673E-2],"split_indices":[376,498,100,201,274,0,52,0,0,496,0,0,0,0,0,0,0,0,2,3,0,0,0,0,0],"split_type":[0,0,0,0,0,0,0,0,0,0,0,0,0,0,0,0,0,0,0,0,0,0,0,0,0],"sum_hessian":[1.2021142E2,6.428788E1,5.592354E1,4.9157444E1,1.5130435E1,4.1648888E1,1.4274652E1,1.5476693E0,4.7609776E1,9.048272E0,6.082163E0,1.2538714E0,1.3020781E1,1.1487232E0,7.8995485E0,2.2510545E0,3.8311086E0,5.730797E0,2.1687517E0,2.757221E0,1.0738873E0,1.0694824E0,1.0992694E0,1.2637227E0,1.4934984E0],"tree_param":{"num_deleted":"0","num_feature":"510","num_nodes":"25","size_leaf_vector":"1"}},{"base_weights":[-4.5867792E-1,-5.276264E-1,5.286847E-1,-5.570493E-1,5.153944E-1,1.1095597E-1,-4.2064022E-2,-5.6746316E-1,1.6145656E-2,1.5359505E-2,6.226787E-2,-5.779905E-2,1.3840519E-2],"categories":[],"categories_nodes":[],"categories_segments":[],"categories_sizes":[],"default_left":[0,0,0,0,0,0,0,0,0,0,0,0,0],"id":29,"left_children":[1,3,5,7,9,-1,-1,11,-1,-1,-1,-1,-1],"loss_changes":[7.1081696E0,3.1800785E0,4.3529425E0,7.812233E-1,2.4909139E-2,0E0,0E0,7.5671005E-1,0E0,0E0,0E0,0E0,0E0],"parents":[2147483647,0,0,1,1,2,2,3,3,4,4,7,7],"right_children":[2,4,6,8,10,-1,-1,12,-1,-1,-1,-1,-1],"split_conditions":[2.906513E1,9.976303E-1,5.003745E1,9.782656E0,6.6141357E0,1.1095597E-1,-4.2064022E-2,7.9582133E0,1.6145656E-2,1.5359505E-2,6.226787E-2,-5.779905E-2,1.3840519E-2],"split_indices":[478,228,105,356,188,0,0,234,0,0,0,0,0],"split_type":[0,0,0,0,0,0,0,0,0,0,0,0,0],"sum_hessian":[9.931595E1,9.326854E1,6.047409E0,9.116283E1,2.1057127E0,3.6470537E0,2.4003556E0,9.006762E1,1.0952053E0,1.037745E0,1.0679677E0,8.892259E1,1.1450253E0],"tree_param":{"num_deleted":"0","num_feature":"510","num_nodes":"13","size_leaf_vector":"1"}},{"base_weights":[1.8726562E-1,-2.1703553E-1,7.924953E-1,2.1419069E-1,-5.095158E-1,8.6745703E-1,-2.3073852E-1,5.355298E-1,-5.2818682E-2,-5.646521E-2,6.76276E-2,2.16264E-2,9.4198954E-1,-4.0234398E-2,1.563815E-2,-2.0903534E-1,7.997566E-1,6.74475E-2,-4.6396773E-2,-7.857085E-3,9.8299545E-1,-4.7302548E-2,3.8940646E-2,-4.0108982E-2,9.601683E-1,1.6640668E-1,1.0488777E0,1.1335212E-1,6.319001E-2,6.371636E-2,-3.858347E-2,2.6045213E-2,1.0772028E-1],"categories":[],"categories_nodes":[],"categories_segments":[],"categories_sizes":[],"default_left":[0,0,0,0,0,0,0,0,0,0,0,0,0,0,0,0,0,0,0,0,0,0,0,0,0,0,0,0,0,0,0,0,0],"id":30,"left_children":[1,3,5,7,9,11,13,15,-1,-1,-1,17,19,-1,-1,21,23,-1,-1,-1,25,-1,-1,-1,27,29,31,-1,-1,-1,-1,-1,-1],"loss_changes":[3.0820894E1,9.679056E0,4.0642395E0,7.7660637E0,3.35715E0,2.9519577E0,3.4383148E-1,4.5718923E0,0E0,0E0,0E0,1.8478332E0,1.8895798E0,0E0,0E0,1.2358983E0,3.608222E0,0E0,0E0,0E0,2.069294E0,0E0,0E0,0E0,1.4045238E-1,1.3643253E0,5.7712173E-1,0E0,0E0,0E0,0E0,0E0,0E0],"parents":[2147483647,0,0,1,1,2,2,3,3,4,4,5,5,6,6,7,7,11,11,12,12,15,15,16,16,20,20,24,24,25,25,26,26],"right_children":[2,4,6,8,10,12,14,16,-1,-1,-1,18,20,-1,-1,22,24,-1,-1,-1,26,-1,-1,-1,28,30,32,-1,-1,-1,-1,-1,-1],"split_conditions":[3.8526149E0,7.415153E0,7.611043E-1,7.383264E-1,4.7115265E1,4.3040767E0,7.090892E0,-7.23644E-1,-5.2818682E-2,-5.646521E-2,6.76276E-2,-3.1686804E0,2.3805765E1,-4.0234398E-2,1.563815E-2,2.035694E1,1.2172366E1,6.74475E-2,-4.6396773E-2,-7.857085E-3,-7.41222E-1,-4.7302548E-2,3.8940646E-2,-4.0108982E-2,7.360921E0,4.3356E0,3.538408E1,1.1335212E-1,6.319001E-2,6.371636E-2,-3.858347E-2,2.6045213E-2,1.0772028E-1],"split_indices":[219,460,7,7,11,188,171,295,0,0,0,458,153,0,0,2,410,0,0,0,6,0,0,0,443,216,343,0,0,0,0,0,0],"split_type":[0,0,0,0,0,0,0,0,0,0,0,0,0,0,0,0,0,0,0,0,0,0,0,0,0,0,0,0,0,0,0,0,0],"sum_hessian":[1.2425342E2,7.487641E1,4.9377E1,3.036889E1,4.4507526E1,4.6148426E1,3.2285748E0,2.1389183E1,8.979708E0,4.3030533E1,1.4769902E0,3.841655E0,4.230677E1,2.2097113E0,1.0188637E0,5.6570506E0,1.5732132E1,1.4727175E0,2.3689377E0,1.5988274E0,4.0707943E1,4.070851E0,1.5861998E0,1.6770811E0,1.4055051E1,3.30234E0,3.74056E1,7.5925293E0,6.4625216E0,1.6996769E0,1.6026632E0,1.6508018E0,3.57548E1],"tree_param":{"num_deleted":"0","num_feature":"510","num_nodes":"33","size_leaf_vector":"1"}},{"base_weights":[1.5238228E-1,7.0588E-1,-4.0758643E-1,1.8322805E-1,9.9664795E-1,6.9289494E-1,-4.9144825E-1,3.723427E-2,8.735673E-2,8.9651905E-3,1.0194823E0,1.1443313E-1,-3.2908864E-2,-5.352521E-1,4.0329146E-1,-1.6594063E-1,6.401225E-1,4.1240145E-2,1.04058616E-1,-5.6825448E-2,-5.523063E-2,5.2200224E-2,9.233236E-3,-2.6412278E-1,6.510365E-2,9.4138026E-2,-3.255951E-2,-4.287955E-2,6.63642E-2,-4.096873E-2,2.4504714E-2],"categories":[],"categories_nodes":[],"categories_segments":[],"categories_sizes":[],"default_left":[0,0,0,0,0,0,0,0,0,0,0,0,0,0,0,0,0,0,0,0,0,0,0,0,0,0,0,0,0,0,0],"id":31,"left_children":[1,3,5,7,9,11,13,15,-1,-1,17,-1,-1,19,21,23,25,-1,-1,-1,27,-1,-1,29,-1,-1,-1,-1,-1,-1,-1],"loss_changes":[3.8925747E1,9.400564E0,6.118043E0,2.3628087E0,7.430916E-1,2.6131637E0,2.5186548E0,2.6371996E0,0E0,0E0,7.316971E-2,0E0,0E0,8.627701E-1,7.40816E-2,1.4752817E0,1.8816047E0,0E0,0E0,0E0,1.5570855E0,0E0,0E0,1.228204E0,0E0,0E0,0E0,0E0,0E0,0E0,0E0],"parents":[2147483647,0,0,1,1,2,2,3,3,4,4,5,5,6,6,7,7,10,10,13,13,14,14,15,15,16,16,20,20,23,23],"right_children":[2,4,6,8,10,12,14,16,-1,-1,18,-1,-1,20,22,24,26,-1,-1,-1,28,-1,-1,30,-1,-1,-1,-1,-1,-1,-1],"split_conditions":[-2.8023067E-1,7.408697E0,3.992961E1,2.1157725E0,-1.3048791E0,3.0894086E0,7.814588E0,7.420318E0,8.735673E-2,8.9651905E-3,-9.9925E-1,1.1443313E-1,-3.2908864E-2,6.305062E0,-2.2025027E0,-3.6171374E-1,4.0258865E1,4.1240145E-2,1.04058616E-1,-5.6825448E-2,-5.0060356E-1,5.2200224E-2,9.233236E-3,3.933752E1,6.510365E-2,9.4138026E-2,-3.255951E-2,-4.287955E-2,6.63642E-2,-4.096873E-2,2.4504714E-2],"split_indices":[414,426,275,217,180,46,356,52,0,0,6,0,0,16,135,363,0,0,0,0,95,0,0,340,0,0,0,0,0,0,0],"split_type":[0,0,0,0,0,0,0,0,0,0,0,0,0,0,0,0,0,0,0,0,0,0,0,0,0,0,0,0,0,0,0],"sum_hessian":[1.2366241E2,6.2059498E1,6.160291E1,2.2766727E1,3.929277E1,3.847786E0,5.7755123E1,1.966243E1,3.1042979E0,1.0859047E0,3.8206863E1,2.5858388E0,1.2619472E0,5.5442593E1,2.3125296E0,1.5248426E1,4.4140024E0,1.9736524E0,3.623321E1,5.1704033E1,3.7385583E0,1.1824406E0,1.130089E0,1.4216619E1,1.0318084E0,3.3836625E0,1.0303401E0,2.7256703E0,1.0128882E0,1.1207837E1,3.0087812E0],"tree_param":{"num_deleted":"0","num_feature":"510","num_nodes":"31","size_leaf_vector":"1"}},{"base_weights":[-1.9281948E-1,-5.449076E-1,6.1814034E-1,-5.68418E-2,-2.364814E-1,-3.0777666E-1,8.9509004E-1,-4.9269855E-2,5.6220856E-2,3.1334054E-2,-5.1680055E-2,-3.681843E-2,9.906329E-1,3.0482707E-3,1.05064474E-1],"categories":[],"categories_nodes":[],"categories_segments":[],"categories_sizes":[],"default_left":[0,0,0,0,0,0,0,0,0,0,0,0,0,0,0],"id":32,"left_children":[1,3,5,-1,7,9,11,-1,-1,-1,-1,-1,13,-1,-1],"loss_changes":[3.0411438E1,4.0198708E-1,8.572289E0,0E0,1.6996231E0,1.2256868E0,3.4016132E0,0E0,0E0,0E0,0E0,0E0,1.3314438E0,0E0,0E0],"parents":[2147483647,0,0,1,1,2,2,4,4,5,5,6,6,12,12],"right_children":[2,4,6,-1,8,10,12,-1,-1,-1,-1,-1,14,-1,-1],"split_conditions":[7.611043E-1,8.660254E-1,3.7465084E1,-5.68418E-2,7.415153E0,-5.319569E0,3.6465183E1,-4.9269855E-2,5.6220856E-2,3.1334054E-2,-5.1680055E-2,-3.681843E-2,-5.4524046E-1,3.0482707E-3,1.05064474E-1],"split_indices":[7,209,85,0,1,299,136,0,0,0,0,0,6,0,0],"split_type":[0,0,0,0,0,0,0,0,0,0,0,0,0,0,0],"sum_hessian":[1.04329315E2,7.297458E1,3.1354734E1,6.7022675E1,5.9519024E0,7.193529E0,2.4161205E1,4.7963614E0,1.1555406E0,1.6856203E0,5.507909E0,1.498207E0,2.2662998E1,1.4218743E0,2.1241123E1],"tree_param":{"num_deleted":"0","num_feature":"510","num_nodes":"15","size_leaf_vector":"1"}},{"base_weights":[1.4753261E-1,-3.7242022E-1,6.810754E-1,-4.855597E-1,-5.7912488E-2,1.0189315E-1,-4.1523075E-1,3.9939237E-1,-5.4459476E-1,-2.1666531E-1,7.740465E-2,5.287033E-2,-5.389137E-2,-3.1246787E-2,9.010958E-2,-5.669151E-2,2.0288583E-2,2.9418278E-1,-3.463591E-1,-1.6371802E-3,5.179564E-2,-1.3614881E-1,-5.3375877E-2,-3.4026757E-2,5.1376194E-2],"categories":[],"categories_nodes":[],"categories_segments":[],"categories_sizes":[],"default_left":[0,0,0,0,0,0,0,0,0,0,0,0,0,0,0,0,0,0,0,0,0,0,0,0,0],"id":33,"left_children":[1,3,5,7,9,-1,11,13,15,17,-1,-1,-1,-1,-1,-1,-1,19,21,-1,-1,23,-1,-1,-1],"loss_changes":[3.4327908E1,2.2083626E0,2.3007738E1,2.6253128E0,2.513871E0,0E0,2.0448773E0,1.5169861E0,8.4292793E-1,1.141983E0,0E0,0E0,0E0,0E0,0E0,0E0,0E0,2.669485E-1,4.3862605E-1,0E0,0E0,1.1644188E0,0E0,0E0,0E0],"parents":[2147483647,0,0,1,1,2,2,3,3,4,4,6,6,7,7,8,8,9,9,17,17,18,18,21,21],"right_children":[2,4,6,8,10,-1,12,14,16,18,-1,-1,-1,-1,-1,-1,-1,20,22,-1,-1,24,-1,-1,-1],"split_conditions":[7.5559626E0,8.660254E-1,1.3184247E0,3.936858E0,5.584058E1,1.0189315E-1,4.6565256E0,3.420548E1,5.8737655E0,5.2795982E1,7.740465E-2,5.287033E-2,-5.389137E-2,-3.1246787E-2,9.010958E-2,-5.669151E-2,2.0288583E-2,5.288863E1,5.489186E1,-1.6371802E-3,5.179564E-2,7.3893285E0,-5.3375877E-2,-3.4026757E-2,5.1376194E-2],"split_indices":[205,481,117,324,105,0,426,306,43,496,0,0,0,0,0,0,0,462,496,0,0,307,0,0,0],"split_type":[0,0,0,0,0,0,0,0,0,0,0,0,0,0,0,0,0,0,0,0,0,0,0,0,0],"sum_hessian":[1.2182683E2,6.185213E1,5.9974697E1,4.5088383E1,1.6763748E1,4.5899967E1,1.4074728E1,2.4591846E0,4.26292E1,1.4698567E1,2.0651805E0,1.251182E0,1.2823545E1,1.1725936E0,1.2865912E0,4.162773E1,1.0014681E0,2.7192976E0,1.197927E1,1.5269808E0,1.1923168E0,6.459746E0,5.5195236E0,5.278391E0,1.1813552E0],"tree_param":{"num_deleted":"0","num_feature":"510","num_nodes":"25","size_leaf_vector":"1"}},{"base_weights":[-4.8093084E-1,-5.708923E-2,-2.9473359E-2,-3.8288158E-1,9.342078E-1,5.687334E-2,-5.2890655E-2,1.33723365E-2,1.12017766E-1],"categories":[],"categories_nodes":[],"categories_segments":[],"categories_sizes":[],"default_left":[0,0,0,0,0,0,0,0,0],"id":34,"left_children":[1,-1,3,5,7,-1,-1,-1,-1],"loss_changes":[3.6506042E0,0E0,5.826809E0,2.0320978E0,5.349331E-1,0E0,0E0,0E0,0E0],"parents":[2147483647,0,0,2,2,3,3,4,4],"right_children":[2,-1,4,6,8,-1,-1,-1,-1],"split_conditions":[8.140461E-1,-5.708923E-2,3.7216175E0,1.368835E1,3.551293E1,5.687334E-2,-5.2890655E-2,1.33723365E-2,1.12017766E-1],"split_indices":[7,0,403,189,51,0,0,0,0],"split_type":[0,0,0,0,0,0,0,0,0],"sum_hessian":[8.93001E1,7.4241516E1,1.5058586E1,1.1458961E1,3.5996256E0,1.1393404E0,1.031962E1,1.0026973E0,2.5969281E0],"tree_param":{"num_deleted":"0","num_feature":"510","num_nodes":"9","size_leaf_vector":"1"}},{"base_weights":[1.6067602E-1,-2.623575E-1,7.249747E-1,-3.755219E-1,9.573617E-2,6.973489E-2,8.457444E-1,-4.7585273E-1,3.2709393E-1,-5.1694423E-2,7.389776E-2,-3.3844847E-2,8.861697E-1,4.1126788E-2,-5.029846E-1,-4.0188953E-2,6.2406886E-1,-3.2129515E-2,9.219012E-1,-2.3886415E-1,-5.6345012E-2,8.876728E-2,1.8804634E-1,9.4827837E-1,1.0192074E-3,-3.5789292E-2,4.8621695E-2,-4.287862E-2,6.949567E-2,9.7099595E-2,5.454835E-3],"categories":[],"categories_nodes":[],"categories_segments":[],"categories_sizes":[],"default_left":[1,0,0,0,0,0,0,0,0,0,0,0,0,0,0,0,0,0,0,0,0,0,0,0,0,0,0,0,0,0,0],"id":35,"left_children":[1,3,5,7,-1,9,11,13,15,-1,-1,-1,17,-1,19,-1,21,-1,23,25,-1,-1,27,29,-1,-1,-1,-1,-1,-1,-1],"loss_changes":[2.9950546E1,1.0295751E1,4.188965E0,4.85007E0,0E0,4.0900893E0,2.4654694E0,1.6192312E0,2.180526E0,0E0,0E0,0E0,2.195427E0,0E0,7.819071E-1,0E0,6.0605574E-1,0E0,1.024723E0,1.2464824E0,0E0,0E0,1.4870116E0,7.955742E-1,0E0,0E0,0E0,0E0,0E0,0E0,0E0],"parents":[2147483647,0,0,1,1,2,2,3,3,5,5,6,6,7,7,8,8,12,12,14,14,16,16,18,18,19,19,22,22,23,23],"right_children":[2,4,6,8,-1,10,12,14,16,-1,-1,-1,18,-1,20,-1,22,-1,24,26,-1,-1,28,30,-1,-1,-1,-1,-1,-1,-1],"split_conditions":[3.7678874E0,4.7238327E1,1.4686769E0,1E0,9.573617E-2,2.1578424E0,2.3885998E1,2.6953573E1,3.927687E1,-5.1694423E-2,7.389776E-2,-3.3844847E-2,3.936858E0,4.1126788E-2,-8.263542E-1,-4.0188953E-2,3.954667E1,-3.2129515E-2,9.479077E0,-8.5876393E-1,-5.6345012E-2,8.876728E-2,3.9651245E1,5.478021E0,1.0192074E-3,-3.5789292E-2,4.8621695E-2,-4.287862E-2,6.949567E-2,9.7099595E-2,5.454835E-3],"split_indices":[15,340,434,498,0,44,25,204,0,0,0,0,1,0,57,0,0,0,169,74,0,0,0,322,0,0,0,0,0,0,0],"split_type":[0,0,0,0,0,0,0,0,0,0,0,0,0,0,0,0,0,0,0,0,0,0,0,0,0,0,0,0,0,0,0],"sum_hessian":[1.2366775E2,7.098673E1,5.2681015E1,6.5593185E1,5.39355E0,8.444191E0,4.4236824E1,5.7679516E1,7.91367E0,4.620918E0,3.8232732E0,1.2169206E0,4.30199E1,1.2915654E0,5.638795E1,2.188439E0,5.725231E0,1.0067649E0,4.2013138E1,1.1426421E1,4.496153E1,2.9225304E0,2.802701E0,4.079283E1,1.2203081E0,1.0250171E1,1.1762506E0,1.3337946E0,1.4689064E0,3.9697315E1,1.0955133E0],"tree_param":{"num_deleted":"0","num_feature":"510","num_nodes":"31","size_leaf_vector":"1"}},{"base_weights":[1.6825515E-1,7.0499796E-1,-3.7076408E-1,2.4261811E-1,9.1645086E-1,1.16396785E-1,-5.4161114E-1,-5.7633225E-2,6.431031E-1,9.384344E-1,6.9370293E-3,-3.9179727E-1,5.1052994E-1,-5.6209303E-2,1.5206342E-2,1.6690673E-1,-4.756667E-2,-1.227955E-2,8.8410527E-1,3.7355337E-2,9.580141E-2,1.2078998E-2,-4.952913E-2,-4.472097E-2,1.0393391E0,6.2202007E-2,-3.6177114E-2,1.0116451E-1,9.54727E-3,9.0879025E-3,1.23982266E-1,-2.7691731E-2,2.9665945E-2],"categories":[],"categories_nodes":[],"categories_segments":[],"categories_sizes":[],"default_left":[0,0,0,0,0,0,0,0,0,0,0,0,0,0,0,0,0,0,0,0,0,0,0,0,0,0,0,0,0,0,0,0,0],"id":36,"left_children":[1,3,5,7,9,11,13,15,17,19,-1,21,23,-1,-1,25,-1,-1,27,-1,-1,-1,-1,-1,29,-1,31,-1,-1,-1,-1,-1,-1],"loss_changes":[3.527286E1,5.73979E0,5.1429768E0,2.5016348E0,7.0741653E-1,3.5390377E0,7.3000145E-1,1.2650654E0,1.7447815E0,8.8466644E-2,0E0,4.761262E-1,5.4397907E0,0E0,0E0,8.504494E-1,0E0,0E0,5.938754E-1,0E0,0E0,0E0,0E0,0E0,1.1479335E0,0E0,6.5418017E-1,0E0,0E0,0E0,0E0,0E0,0E0],"parents":[2147483647,0,0,1,1,2,2,3,3,4,4,5,5,6,6,7,7,8,8,9,9,11,11,12,12,15,15,18,18,24,24,26,26],"right_children":[2,4,6,8,10,12,14,16,18,20,-1,22,24,-1,-1,26,-1,-1,28,-1,-1,-1,-1,-1,30,-1,32,-1,-1,-1,-1,-1,-1],"split_conditions":[-4.0148798E-1,7.411279E0,3.8501457E1,-3.6031103E-1,9.182412E-2,3.689308E1,1.0335165E1,-7.8564984E-1,1.1511231E1,-9.9887973E-1,6.9370293E-3,3.660373E1,2.9389083E0,-5.6209303E-2,1.5206342E-2,3.9651245E1,-4.756667E-2,-1.227955E-2,2.1157725E0,3.7355337E-2,9.580141E-2,1.2078998E-2,-4.952913E-2,-4.472097E-2,1.5837537E0,6.2202007E-2,7.424192E0,1.0116451E-1,9.54727E-3,9.0879025E-3,1.23982266E-1,-2.7691731E-2,2.9665945E-2],"split_indices":[482,392,65,458,231,65,188,6,121,74,0,156,114,0,0,0,0,0,166,0,0,0,0,0,366,0,1,0,0,0,0,0,0],"split_type":[0,0,0,0,0,0,0,0,0,0,0,0,0,0,0,0,0,0,0,0,0,0,0,0,0,0,0,0,0,0,0,0,0],"sum_hessian":[1.2001519E2,5.9980286E1,6.0034904E1,1.9496046E1,4.048424E1,1.5670385E1,4.436452E1,1.1631659E1,7.8643875E0,3.9355045E1,1.1291964E0,6.8473544E0,8.823031E0,4.32764E1,1.0881178E0,7.957922E0,3.6737363E0,1.9997411E0,5.8646464E0,1.9910531E0,3.736399E1,1.1221964E0,5.7251577E0,3.193504E0,5.629527E0,1.8188913E0,6.1390305E0,4.804815E0,1.0598315E0,1.235909E0,4.3936186E0,3.6598644E0,2.4791663E0],"tree_param":{"num_deleted":"0","num_feature":"510","num_nodes":"33","size_leaf_vector":"1"}},{"base_weights":[-1.663003E-1,-5.2297425E-1,6.0840935E-1,-5.6181025E-2,-1.0816137E-1,-4.9373593E-2,8.0178136E-1,-3.2788727E-1,5.6316674E-2,-2.1933997E-1,9.229227E-1,-1.1082116E-1,-4.3190073E-2,1.264698E-2,-3.9149094E-2,4.047369E-3,9.625798E-2,-3.2373857E-2,1.7200354E-2],"categories":[],"categories_nodes":[],"categories_segments":[],"categories_sizes":[],"default_left":[0,0,0,0,0,0,0,0,0,0,0,0,0,0,0,0,0,0,0],"id":37,"left_children":[1,3,5,-1,7,-1,9,11,-1,13,15,17,-1,-1,-1,-1,-1,-1,-1],"loss_changes":[2.8408058E1,1.0692825E0,7.324585E0,0E0,1.2531453E0,0E0,3.6708317E0,8.96219E-2,0E0,2.7463597E-1,8.449249E-1,2.5547725E-1,0E0,0E0,0E0,0E0,0E0,0E0,0E0],"parents":[2147483647,0,0,1,1,2,2,4,4,6,6,7,7,9,9,10,10,11,11],"right_children":[2,4,6,-1,8,-1,10,12,-1,14,16,18,-1,-1,-1,-1,-1,-1,-1],"split_conditions":[7.611043E-1,5.5601746E-1,3.7298435E1,-5.6181025E-2,3.9938828E1,-4.9373593E-2,3.8050808E1,3.9598957E1,5.6316674E-2,1.5159074E0,-4.5308914E0,7.3906198E0,-4.3190073E-2,1.264698E-2,-3.9149094E-2,4.047369E-3,9.625798E-2,-3.2373857E-2,1.7200354E-2],"split_indices":[7,279,212,0,0,0,133,0,0,77,115,1,0,0,0,0,0,0,0],"split_type":[0,0,0,0,0,0,0,0,0,0,0,0,0,0,0,0,0,0,0],"sum_hessian":[1.0065751E2,6.914726E1,3.1510246E1,6.2903667E1,6.2435994E0,4.471446E0,2.70388E1,5.089416E0,1.1541831E0,2.7815995E0,2.42572E1,2.3178136E0,2.7716024E0,1.0126951E0,1.7689047E0,1.1301308E0,2.312707E1,1.2398001E0,1.0780134E0],"tree_param":{"num_deleted":"0","num_feature":"510","num_nodes":"19","size_leaf_vector":"1"}},{"base_weights":[1.2548389E-1,-3.6013958E-1,6.069809E-1,-5.1989645E-1,6.471883E-2,9.337684E-2,-4.129381E-1,-5.610123E-2,5.224089E-2,-3.031932E-1,6.565864E-1,3.9611742E-2,-5.3236704E-2,2.790794E-1,-5.293144E-2,9.8911636E-2,7.992972E-2,-3.6816236E-2,8.4437855E-2,-3.698118E-2,5.7237532E-2],"categories":[],"categories_nodes":[],"categories_segments":[],"categories_sizes":[],"default_left":[0,0,0,0,0,0,0,0,0,0,0,0,0,0,0,0,0,0,0,0,0],"id":38,"left_children":[1,3,5,7,9,-1,11,-1,-1,13,15,-1,-1,17,-1,-1,19,-1,-1,-1,-1],"loss_changes":[2.7955368E1,4.0847235E0,2.0362093E1,2.1566744E0,3.944325E0,0E0,1.6831758E0,0E0,0E0,1.6342678E0,1.2457664E0,0E0,0E0,1.7059515E0,0E0,0E0,1.0122561E0,0E0,0E0,0E0,0E0],"parents":[2147483647,0,0,1,1,2,2,3,3,4,4,6,6,9,9,10,10,13,13,16,16],"right_children":[2,4,6,8,10,-1,12,-1,-1,14,16,-1,-1,18,-1,-1,20,-1,-1,-1,-1],"split_conditions":[7.554607E0,8.660254E-1,1.5805464E0,1.0427915E1,5.5405098E1,9.337684E-2,4.025792E0,-5.610123E-2,5.224089E-2,6.669036E0,4.0069546E1,3.9611742E-2,-5.3236704E-2,5.4355377E1,-5.293144E-2,9.8911636E-2,2.0377583E1,-3.6816236E-2,8.4437855E-2,-3.698118E-2,5.7237532E-2],"split_indices":[205,481,134,339,105,0,375,0,0,494,51,0,0,224,0,0,53,0,0,0,0],"split_type":[0,0,0,0,0,0,0,0,0,0,0,0,0,0,0,0,0,0,0,0,0],"sum_hessian":[1.17621284E2,5.8685196E1,5.893609E1,4.248582E1,1.6199373E1,4.469882E1,1.423727E1,4.131772E1,1.168103E0,1.0290444E1,5.90893E0,1.5333097E0,1.2703961E1,2.812898E0,7.477546E0,3.2941134E0,2.6148162E0,1.4739836E0,1.3389143E0,1.4968243E0,1.117992E0],"tree_param":{"num_deleted":"0","num_feature":"510","num_nodes":"21","size_leaf_vector":"1"}},{"base_weights":[-4.52053E-1,-5.6385726E-2,-3.1040518E-3,1.08779564E-1,-3.0100328E-1,5.5864967E-2,-4.6758512E-1,-5.3137045E-2,1.5423161E-2],"categories":[],"categories_nodes":[],"categories_segments":[],"categories_sizes":[],"default_left":[0,0,0,0,0,0,0,0,0],"id":39,"left_children":[1,-1,3,-1,5,-1,7,-1,-1],"loss_changes":[4.340418E0,0E0,6.2594213E0,0E0,2.4266355E0,0E0,6.0594654E-1,0E0,0E0],"parents":[2147483647,0,0,2,2,4,4,6,6],"right_children":[2,-1,4,-1,6,-1,8,-1,-1],"split_conditions":[8.0392796E-1,-5.6385726E-2,-4.5308914E0,1.08779564E-1,-4.600014E0,5.5864967E-2,3.6569252E0,-5.3137045E-2,1.5423161E-2],"split_indices":[7,0,149,0,387,0,94,0,0],"split_type":[0,0,0,0,0,0,0,0,0],"sum_hessian":[8.5507034E1,6.825353E1,1.7253508E1,3.132138E0,1.4121369E1,1.9101827E0,1.2211186E1,1.1207035E1,1.004152E0],"tree_param":{"num_deleted":"0","num_feature":"510","num_nodes":"9","size_leaf_vector":"1"}},{"base_weights":[1.5740278E-1,-3.4391165E-1,5.8698773E-1,2.6262835E-1,-5.298128E-1,7.1308666E-1,-3.8566428E-1,7.0481753E-1,-4.7239304E-2,1.4234624E-2,-5.5229772E-2,5.047485E-2,7.811217E-1,1.6198397E-2,-4.8944715E-2,3.7014106E-1,8.862098E-2,-3.0022854E-1,7.2294414E-2,2.035263E-1,8.444767E-1,7.921103E-2,-4.2188484E-2,1.3055468E-2,-4.4776917E-2,7.077976E-2,-4.554106E-2,8.71449E-1,-4.319322E-3,-2.676695E-3,9.008711E-2],"categories":[],"categories_nodes":[],"categories_segments":[],"categories_sizes":[],"default_left":[1,0,0,0,0,0,0,0,0,0,0,0,0,0,0,0,0,0,0,0,0,0,0,0,0,0,0,0,0,0,0],"id":40,"left_children":[1,3,5,7,9,11,13,15,-1,-1,-1,17,19,-1,-1,21,-1,23,-1,25,27,-1,-1,-1,-1,-1,-1,29,-1,-1,-1],"loss_changes":[2.5177475E1,6.244788E0,7.980398E0,4.6789513E0,7.1001816E-1,2.4835205E0,5.259628E-1,2.0317888E-1,0E0,0E0,0E0,1.698183E0,1.6828594E0,0E0,0E0,1.9359865E0,0E0,3.6571357E-1,0E0,2.4248543E0,1.1236038E0,0E0,0E0,0E0,0E0,0E0,0E0,1.1886826E0,0E0,0E0,0E0],"parents":[2147483647,0,0,1,1,2,2,3,3,4,4,5,5,6,6,7,7,11,11,12,12,15,15,17,17,19,19,20,20,27,27],"right_children":[2,4,6,8,10,12,14,16,-1,-1,-1,18,20,-1,-1,22,-1,24,-1,26,28,-1,-1,-1,-1,-1,-1,30,-1,-1,-1],"split_conditions":[2.2544115E0,1.9363718E1,7.611043E-1,-6.8077344E-1,-9.9925E-1,-8.660254E-1,-4.600014E0,3.9651245E1,-4.7239304E-2,1.4234624E-2,-5.5229772E-2,1.687657E1,3.849362E1,1.6198397E-2,-4.8944715E-2,3.954667E1,8.862098E-2,1.1511231E1,7.2294414E-2,-2.6339734E0,9.9887973E-1,7.921103E-2,-4.2188484E-2,1.3055468E-2,-4.4776917E-2,7.077976E-2,-4.554106E-2,-9.981855E-1,-4.319322E-3,-2.676695E-3,9.008711E-2],"split_indices":[15,461,7,6,6,497,234,0,0,0,0,87,156,0,0,0,0,240,0,200,499,0,0,0,0,0,0,58,0,0,0],"split_type":[0,0,0,0,0,0,0,0,0,0,0,0,0,0,0,0,0,0,0,0,0,0,0,0,0,0,0,0,0,0,0],"sum_hessian":[1.14972946E2,5.314895E1,6.1824E1,1.2371547E1,4.07774E1,5.4964966E1,6.859037E0,7.7501473E0,4.6213994E0,1.1473721E0,3.9630028E1,5.2803245E0,4.968464E1,1.0034053E0,5.8556314E0,3.7928085E0,3.9573388E0,3.834247E0,1.4460775E0,5.3274865E0,4.4357155E1,2.4744072E0,1.3184013E0,1.0075551E0,2.8266919E0,2.9759219E0,2.3515644E0,4.3066822E1,1.2903335E0,1.3688176E0,4.1698E1],"tree_param":{"num_deleted":"0","num_feature":"510","num_nodes":"31","size_leaf_vector":"1"}},{"base_weights":[1.4163359E-1,6.3537526E-1,-3.620118E-1,1.5418144E-1,8.603383E-1,2.0260622E-1,-5.15913E-1,4.4744605E-1,-2.2994214E-1,8.815667E-1,6.1410237E-3,8.2876235E-1,-2.1784773E-1,-5.3520554E-1,1.5746891E-2,6.243546E-1,-3.9673906E-2,-4.0932164E-1,4.9736638E-2,2.147517E-2,9.022002E-2,1.0081812E-1,9.008282E-3,-4.993145E-2,7.1212955E-2,-6.2863277E-3,-5.5487182E-2,-3.763124E-2,8.643057E-1,-4.9455903E-2,-1.1769972E-2,9.885897E-2,4.69667E-3],"categories":[],"categories_nodes":[],"categories_segments":[],"categories_sizes":[],"default_left":[0,0,0,0,0,0,0,0,0,0,0,0,0,0,0,0,0,0,0,0,0,0,0,0,0,0,0,0,0,0,0,0,0],"id":41,"left_children":[1,3,5,7,9,11,13,15,17,19,-1,21,23,25,-1,27,-1,29,-1,-1,-1,-1,-1,-1,-1,-1,-1,-1,31,-1,-1,-1,-1],"loss_changes":[2.9557138E1,6.35334E0,5.233034E0,2.3903651E0,6.346111E-1,3.6976974E0,6.904459E-1,2.0180755E0,1.4366984E0,3.4950066E-1,0E0,6.480577E-1,2.6549742E0,3.8859177E-1,0E0,2.7717588E0,0E0,1.4388788E-1,0E0,0E0,0E0,0E0,0E0,0E0,0E0,0E0,0E0,0E0,8.192234E-1,0E0,0E0,0E0,0E0],"parents":[2147483647,0,0,1,1,2,2,3,3,4,4,5,5,6,6,7,7,8,8,9,9,11,11,12,12,13,13,15,15,17,17,28,28],"right_children":[2,4,6,8,10,12,14,16,18,20,-1,22,24,26,-1,28,-1,30,-1,-1,-1,-1,-1,-1,-1,-1,-1,-1,32,-1,-1,-1,-1],"split_conditions":[-3.6171374E-1,7.411279E0,3.7967842E1,-5E-1,2.7415571E0,4.2311296E0,7.096918E0,5.584058E1,5.702423E-1,-9.9887973E-1,6.1410237E-3,3.9935216E-1,6.648763E1,-6.2876284E-1,1.5746891E-2,2.7149666E1,-3.9673906E-2,3.9860394E1,4.9736638E-2,2.147517E-2,9.022002E-2,1.0081812E-1,9.008282E-3,-4.993145E-2,7.1212955E-2,-6.2863277E-3,-5.5487182E-2,-3.763124E-2,4.3585315E0,-4.9455903E-2,-1.1769972E-2,9.885897E-2,4.69667E-3],"split_indices":[499,392,201,259,315,287,32,105,7,57,0,384,394,23,0,252,0,0,0,0,0,0,0,0,0,0,0,0,318,0,0,0,0],"split_type":[0,0,0,0,0,0,0,0,0,0,0,0,0,0,0,0,0,0,0,0,0,0,0,0,0,0,0,0,0,0,0,0,0],"sum_hessian":[1.1693559E2,5.8916286E1,5.801931E1,1.9306095E1,3.961019E1,1.2359499E1,4.565981E1,1.0854343E1,8.451752E0,3.8484188E1,1.1260046E0,4.5750484E0,7.784451E0,4.4587566E1,1.0722437E0,9.1890745E0,1.6652691E0,7.130367E0,1.3213853E0,1.4974893E0,3.69867E1,3.387429E0,1.1876193E0,6.331308E0,1.4531431E0,1.9499693E0,4.2637596E1,1.6673679E0,7.521706E0,4.979137E0,2.1512299E0,6.347055E0,1.1746511E0],"tree_param":{"num_deleted":"0","num_feature":"510","num_nodes":"33","size_leaf_vector":"1"}},{"base_weights":[-1.4767998E-1,-5.017259E-1,5.50897E-1,-5.3951067E-1,-1.4269069E-1,-4.981297E-2,7.430974E-1,-5.553286E-2,1.949322E-2,5.1741768E-2,-3.4476903E-1,-3.929002E-2,8.3631986E-1,-4.4488788E-2,-1.1672527E-1,-6.477574E-4,8.859908E-1,1.69174E-2,-3.2858733E-2,3.3173393E-3,9.236104E-2],"categories":[],"categories_nodes":[],"categories_segments":[],"categories_sizes":[],"default_left":[0,0,0,0,0,0,0,0,0,0,0,0,0,0,0,0,0,0,0,0,0],"id":42,"left_children":[1,3,5,7,9,-1,11,-1,-1,-1,13,-1,15,-1,17,-1,19,-1,-1,-1,-1],"loss_changes":[2.5037659E1,8.314686E-1,7.2555857E0,8.079548E-1,1.2103115E0,0E0,3.4275818E0,0E0,0E0,0E0,9.699792E-2,0E0,1.151247E0,0E0,2.582452E-1,0E0,7.9862976E-1,0E0,0E0,0E0,0E0],"parents":[2147483647,0,0,1,1,2,2,3,3,4,4,6,6,10,10,12,12,14,14,16,16],"right_children":[2,4,6,8,10,-1,12,-1,-1,-1,14,-1,16,-1,18,-1,20,-1,-1,-1,-1],"split_conditions":[7.611043E-1,8.660254E-1,3.7103817E1,9.479077E0,-9.242907E-1,-4.981297E-2,3.8050808E1,-5.553286E-2,1.949322E-2,5.1741768E-2,-8.0647993E-1,-3.929002E-2,-5.5958927E-1,-4.4488788E-2,-7.5266683E-1,-6.477574E-4,-4.5308914E0,1.69174E-2,-3.2858733E-2,3.3173393E-3,9.236104E-2],"split_indices":[7,209,212,271,6,0,133,0,0,0,6,0,6,0,6,0,115,0,0,0,0],"split_type":[0,0,0,0,0,0,0,0,0,0,0,0,0,0,0,0,0,0,0,0,0],"sum_hessian":[9.911493E1,6.596499E1,3.314994E1,5.922907E1,6.7359185E0,4.8866987E0,2.826324E1,5.8219067E1,1.0100051E0,1.2130132E0,5.5229053E0,1.8996515E0,2.6363588E1,3.1771438E0,2.3457613E0,1.5156808E0,2.4847908E1,1.084186E0,1.2615753E0,1.1292897E0,2.3718618E1],"tree_param":{"num_deleted":"0","num_feature":"510","num_nodes":"21","size_leaf_vector":"1"}},{"base_weights":[1.4841442E-1,-3.1348577E-1,5.9176755E-1,-4.6103963E-1,1.5533548E-2,8.821824E-2,-3.9618805E-1,6.547218E-2,-5.2730393E-1,-4.946655E-2,2.1831566E-1,4.6420924E-2,-5.236919E-2,1.996076E-2,-5.5268634E-2,7.2487734E-2,6.216582E-2,-3.1402898E-1,3.6240616E-1,-1.2605786E-2,-4.149522E-2,7.270327E-2,1.37331085E-2],"categories":[],"categories_nodes":[],"categories_segments":[],"categories_sizes":[],"default_left":[0,0,0,0,0,0,0,0,0,0,0,0,0,0,0,0,0,0,0,0,0,0,0],"id":43,"left_children":[1,3,5,7,9,-1,11,-1,13,-1,15,-1,-1,-1,-1,-1,17,19,21,-1,-1,-1,-1],"loss_changes":[2.3698986E1,2.7689471E0,1.7258305E1,3.2514076E0,2.0303316E0,0E0,1.7875338E0,0E0,8.0512714E-1,0E0,1.0615265E0,0E0,0E0,0E0,0E0,0E0,1.4451702E0,5.7107866E-2,4.7624898E-1,0E0,0E0,0E0,0E0],"parents":[2147483647,0,0,1,1,2,2,3,3,4,4,6,6,8,8,10,10,16,16,17,17,18,18],"right_children":[2,4,6,8,10,-1,12,-1,14,-1,16,-1,-1,-1,-1,-1,18,20,22,-1,-1,-1,-1],"split_conditions":[7.554607E0,8.660254E-1,1.3184247E0,2.6616533E1,7.3531737E0,8.821824E-2,4.025792E0,6.547218E-2,-6.790906E0,-4.946655E-2,3.9232944E1,4.6420924E-2,-5.236919E-2,1.996076E-2,-5.5268634E-2,7.2487734E-2,7.4125705E0,7.398367E0,3.9985027E1,-1.2605786E-2,-4.149522E-2,7.270327E-2,1.37331085E-2],"split_indices":[205,498,117,218,222,0,375,0,367,0,0,0,0,0,0,0,1,1,0,0,0,0,0],"split_type":[0,0,0,0,0,0,0,0,0,0,0,0,0,0,0,0,0,0,0,0,0,0,0],"sum_hessian":[1.1382036E2,5.588765E1,5.793271E1,3.8307014E1,1.7580635E1,4.4854538E1,1.3078171E1,1.6496521E0,3.6657364E1,4.5908017E0,1.2989834E1,1.3471103E0,1.1731061E1,1.0052258E0,3.5652138E1,2.2025163E0,1.0787318E1,4.76764E0,6.0196776E0,2.4512308E0,2.3164093E0,1.4463614E0,4.5733166E0],"tree_param":{"num_deleted":"0","num_feature":"510","num_nodes":"23","size_leaf_vector":"1"}},{"base_weights":[-4.308037E-1,-5.3388834E-1,1.5501948E-1,4.6456996E-2,-5.583886E-2,8.795975E-1,-3.9612642E-1,1.0967024E-1,4.975624E-3,1.2761469E-2,-4.906495E-2],"categories":[],"categories_nodes":[],"categories_segments":[],"categories_sizes":[],"default_left":[0,0,0,0,0,0,0,0,0,0,0],"id":44,"left_children":[1,3,5,-1,-1,7,9,-1,-1,-1,-1],"loss_changes":[4.970196E0,1.9484673E0,5.4941244E0,0E0,0E0,1.0042953E0,4.5905304E-1,0E0,0E0,0E0,0E0],"parents":[2147483647,0,0,1,1,2,2,5,5,6,6],"right_children":[2,4,6,-1,-1,8,10,-1,-1,-1,-1],"split_conditions":[9.291414E-1,3.568324E0,5.2129833E1,4.6456996E-2,-5.583886E-2,5.422369E1,-4.7430396E0,1.0967024E-1,4.975624E-3,1.2761469E-2,-4.906495E-2],"split_indices":[7,205,156,0,0,445,299,0,0,0,0],"split_type":[0,0,0,0,0,0,0,0,0,0,0],"sum_hessian":[7.993199E1,6.804676E1,1.1885228E1,1.1995534E0,6.6847206E1,4.877265E0,7.0079637E0,3.6109736E0,1.2662913E0,1.0178863E0,5.9900775E0],"tree_param":{"num_deleted":"0","num_feature":"510","num_nodes":"11","size_leaf_vector":"1"}},{"base_weights":[1.4141499E-1,-3.3613998E-1,5.788251E-1,1.4796922E-1,-5.2860045E-1,6.924941E-1,-3.6065504E-1,-5.056565E-2,6.915602E-1,-5.4704674E-2,7.3817144E-3,1.9490075E-1,7.5686145E-1,-4.7767207E-2,1.6541388E-2,3.326118E-1,8.8011526E-2,-4.382751E-2,5.558097E-1,1.537855E-1,7.983292E-1,-4.142439E-2,7.2857626E-2,-1.1097713E-3,7.247857E-2,6.997766E-2,-3.8919576E-2,-3.1303968E-3,8.245076E-1,2.78365E-2,8.695102E-2],"categories":[],"categories_nodes":[],"categories_segments":[],"categories_sizes":[],"default_left":[0,0,0,0,1,0,0,0,0,0,0,0,0,0,0,0,0,0,0,0,0,0,0,0,0,0,0,0,0,0,0],"id":45,"left_children":[1,3,5,7,9,11,13,-1,15,-1,-1,17,19,-1,-1,21,-1,-1,23,25,27,-1,-1,-1,-1,-1,-1,-1,29,-1,-1],"loss_changes":[2.3605461E1,5.1291656E0,6.535738E0,6.106507E0,4.7385693E-1,1.5452824E0,5.105912E-1,0E0,3.3454704E-1,0E0,0E0,1.9347684E0,1.0389061E0,0E0,0E0,1.7211193E0,0E0,0E0,5.0182474E-1,1.5255412E0,9.6458626E-1,0E0,0E0,0E0,0E0,0E0,0E0,0E0,7.887268E-1,0E0,0E0],"parents":[2147483647,0,0,1,1,2,2,3,3,4,4,5,5,6,6,8,8,11,11,12,12,15,15,18,18,19,19,20,20,28,28],"right_children":[2,4,6,8,10,12,14,-1,16,-1,-1,18,20,-1,-1,22,-1,-1,24,26,28,-1,-1,-1,-1,-1,-1,-1,30,-1,-1],"split_conditions":[2.8262305E0,1.9679142E1,7.611043E-1,3.9314507E1,2.4158823E0,4.499448E0,2.511453E0,-5.056565E-2,-7.8029585E-1,-5.4704674E-2,7.3817144E-3,2.7012142E1,-7.638886E-1,-4.7767207E-2,1.6541388E-2,7.399658E0,8.8011526E-2,-4.382751E-2,2.963079E1,4.4312425E0,1.6180067E0,-4.142439E-2,7.2857626E-2,-1.1097713E-3,7.247857E-2,6.997766E-2,-3.8919576E-2,-3.1303968E-3,2.5993996E0,2.78365E-2,8.695102E-2],"split_indices":[49,223,7,25,15,341,152,0,23,0,0,450,23,0,0,1,0,0,17,148,471,0,0,0,0,0,0,0,423,0,0],"split_type":[0,0,0,0,0,0,0,0,0,0,0,0,0,0,0,0,0,0,0,0,0,0,0,0,0,0,0,0,0,0,0],"sum_hessian":[1.11074265E2,5.3211075E1,5.7863186E1,1.5202458E1,3.8008617E1,5.185239E1,6.010794E0,6.934295E0,8.268164E0,3.6968544E1,1.0400742E0,6.4005756E0,4.5451817E1,4.9923167E0,1.0184772E0,3.799375E0,4.468788E0,2.2459443E0,4.1546316E0,3.2271428E0,4.222467E1,1.3004129E0,2.4989622E0,1.1685429E0,2.9860888E0,1.4651269E0,1.762016E0,1.285623E0,4.093905E1,3.6636164E0,3.7275433E1],"tree_param":{"num_deleted":"0","num_feature":"510","num_nodes":"31","size_leaf_vector":"1"}},{"base_weights":[1.77321E-1,6.593545E-1,-2.8812513E-1,1.7449373E-1,8.1447715E-1,2.4770775E-1,-4.5080957E-1,-1.0190497E-1,6.512168E-1,2.5815094E-2,8.2558654E-2,-2.753936E-1,7.415254E-1,1.6697128E-1,-5.058405E-1,-3.816314E-1,2.899741E-1,8.273452E-2,7.125174E-4,4.956531E-2,-4.8371203E-2,1.0071707E-1,-3.3490513E-2,-3.9406475E-2,7.804371E-2,-5.271146E-1,1.8798253E-2,1.0523717E-2,-4.8953366E-2,7.26465E-2,5.305959E-2,-5.4902997E-2,1.6888624E-2,4.0891968E-2,-3.2806147E-2],"categories":[],"categories_nodes":[],"categories_segments":[],"categories_sizes":[],"default_left":[0,0,0,0,0,0,0,0,0,0,0,0,0,0,0,0,0,0,0,0,0,0,0,0,0,0,0,0,0,0,0,0,0,0,0],"id":46,"left_children":[1,3,5,7,9,11,13,15,17,-1,-1,19,21,23,25,27,29,-1,-1,-1,-1,-1,-1,-1,-1,31,-1,-1,-1,33,-1,-1,-1,-1,-1],"loss_changes":[2.6250994E1,4.1725216E0,5.3237576E0,2.066205E0,5.379677E-2,3.9680665E0,1.655818E0,1.2585754E0,6.413448E-1,0E0,0E0,1.493377E0,2.5579715E0,1.8674567E0,7.2918606E-1,3.9519805E-1,2.1925196E-1,0E0,0E0,0E0,0E0,0E0,0E0,0E0,0E0,7.284851E-1,0E0,0E0,0E0,6.393072E-1,0E0,0E0,0E0,0E0,0E0],"parents":[2147483647,0,0,1,1,2,2,3,3,4,4,5,5,6,6,7,7,8,8,11,11,12,12,13,13,14,14,15,15,16,16,25,25,29,29],"right_children":[2,4,6,8,10,12,14,16,18,-1,-1,20,22,24,26,28,30,-1,-1,-1,-1,-1,-1,-1,-1,32,-1,-1,-1,34,-1,-1,-1,-1,-1],"split_conditions":[-4.0148798E-1,7.393202E0,3.7967842E1,2.3856566E0,-9.9887973E-1,3.3632076E1,-2.636655E-1,4.520722E-1,4.3441153E0,2.5815094E-2,8.2558654E-2,-8.244572E0,4.4644703E1,-6.8077344E-1,9.587268E0,-2.6339734E0,3.9808105E1,8.273452E-2,7.125174E-4,4.956531E-2,-4.8371203E-2,1.0071707E-1,-3.3490513E-2,-3.9406475E-2,7.804371E-2,3.584792E1,1.8798253E-2,1.0523717E-2,-4.8953366E-2,3.9651245E1,5.305959E-2,-5.4902997E-2,1.6888624E-2,4.0891968E-2,-3.2806147E-2],"split_indices":[482,392,201,26,448,195,397,41,12,0,0,152,280,6,186,115,0,0,0,0,0,0,0,0,0,2,0,0,0,0,0,0,0,0,0],"split_type":[0,0,0,0,0,0,0,0,0,0,0,0,0,0,0,0,0,0,0,0,0,0,0,0,0,0,0,0,0,0,0,0,0,0,0],"sum_hessian":[1.1515682E2,5.6365738E1,5.879108E1,1.4177272E1,4.2188465E1,1.3570702E1,4.522038E1,9.471843E0,4.7054296E0,1.3004947E0,4.088797E1,6.804746E0,6.765955E0,3.53231E0,4.168807E1,5.54204E0,3.9298027E0,3.4715984E0,1.2338313E0,1.1540326E0,5.6507134E0,5.4783344E0,1.2876208E0,2.0317996E0,1.5005105E0,4.0680973E1,1.0070938E0,1.0099077E0,4.532132E0,2.7489161E0,1.1808865E0,3.9643856E1,1.0371177E0,1.4834857E0,1.2654306E0],"tree_param":{"num_deleted":"0","num_feature":"510","num_nodes":"35","size_leaf_vector":"1"}},{"base_weights":[-1.646707E-1,-5.0861084E-1,4.9338692E-1,-5.5022676E-2,-8.847276E-2,-4.829287E-2,6.5674424E-1,-3.1213114E-1,5.4101743E-2,-2.5292447E-1,7.7151155E-1,-1.1370538E-1,-4.138001E-2,-4.062125E-2,1.0062408E-2,-1.082029E-2,8.464825E-1,-3.2118227E-2,1.5816705E-2,2.7493909E-2,8.663135E-2],"categories":[],"categories_nodes":[],"categories_segments":[],"categories_sizes":[],"default_left":[0,0,0,0,0,0,0,0,0,0,0,0,0,0,0,0,0,0,0,0,0],"id":47,"left_children":[1,3,5,-1,7,-1,9,11,-1,13,15,17,-1,-1,-1,-1,19,-1,-1,-1,-1],"loss_changes":[2.2013144E1,1.0640221E0,5.6619377E0,0E0,1.1441488E0,0E0,3.2365475E0,6.885296E-2,0E0,2.5856355E-1,1.8139858E0,2.3837414E-1,0E0,0E0,0E0,0E0,3.5856247E-2,0E0,0E0,0E0,0E0],"parents":[2147483647,0,0,1,1,2,2,4,4,6,6,7,7,9,9,10,10,11,11,16,16],"right_children":[2,4,6,-1,8,-1,10,12,-1,14,16,18,-1,-1,-1,-1,20,-1,-1,-1,-1],"split_conditions":[7.611043E-1,8.660254E-1,3.7103817E1,-5.5022676E-2,5.564734E1,-4.829287E-2,3.6655636E1,3.9598957E1,5.4101743E-2,3.565532E1,-5.160624E-1,3.949438E1,-4.138001E-2,-4.062125E-2,1.0062408E-2,-1.082029E-2,-5.09493E0,-3.2118227E-2,1.5816705E-2,2.7493909E-2,8.663135E-2],"split_indices":[7,243,212,0,3,0,34,0,0,34,23,0,0,0,0,0,319,0,0,0,0],"split_type":[0,0,0,0,0,0,0,0,0,0,0,0,0,0,0,0,0,0,0,0,0],"sum_hessian":[9.515151E1,6.263949E1,3.2512024E1,5.6712326E1,5.927162E0,4.379771E0,2.8132254E1,4.745304E0,1.1818581E0,3.0167866E0,2.5115467E1,2.3253472E0,2.4199572E0,2.0004804E0,1.0163063E0,1.9374955E0,2.317797E1,1.2159983E0,1.1093488E0,1.2756921E0,2.1902279E1],"tree_param":{"num_deleted":"0","num_feature":"510","num_nodes":"21","size_leaf_vector":"1"}},{"base_weights":[1.21183574E-1,-3.285997E-1,5.9471583E-1,-4.5922998E-1,-1.7748306E-2,8.2893364E-2,-5.0462455E-2,2.6660374E-1,-5.474905E-2,-2.6753348E-1,2.9947832E-1,-3.6912646E-2,7.635481E-2,4.647619E-2,-5.1622596E-2,7.445615E-2,4.339344E-2,-4.5614984E-2,3.9073068E-1,1.6391592E-2,5.3908594E-2],"categories":[],"categories_nodes":[],"categories_segments":[],"categories_sizes":[],"default_left":[0,0,0,0,0,0,0,0,0,0,0,0,0,0,0,0,0,0,0,0,0],"id":48,"left_children":[1,3,5,7,9,-1,-1,11,-1,13,15,-1,-1,-1,-1,-1,17,-1,19,-1,-1],"loss_changes":[2.3405209E1,2.2874212E0,1.4178516E1,2.6933756E0,1.4879895E0,0E0,0E0,1.8562801E0,0E0,2.146418E0,9.135946E-1,0E0,0E0,0E0,0E0,0E0,1.27652E0,0E0,5.539632E-2,0E0,0E0],"parents":[2147483647,0,0,1,1,2,2,3,3,4,4,7,7,9,9,10,10,16,16,18,18],"right_children":[2,4,6,8,10,-1,-1,12,-1,14,16,-1,-1,-1,-1,-1,18,-1,20,-1,-1],"split_conditions":[7.5636454E0,8.660254E-1,1.5805464E0,4.2314363E0,1.9656612E1,8.2893364E-2,-5.0462455E-2,-5E-1,-5.474905E-2,-8.3147776E-1,3.9520527E1,-3.6912646E-2,7.635481E-2,4.647619E-2,-5.1622596E-2,7.445615E-2,7.4216094E0,-4.5614984E-2,7.437104E0,1.6391592E-2,5.3908594E-2],"split_indices":[103,498,83,375,274,0,0,39,0,458,323,0,0,0,0,0,1,0,1,0,0],"split_type":[0,0,0,0,0,0,0,0,0,0,0,0,0,0,0,0,0,0,0,0,0],"sum_hessian":[1.0797283E2,5.5531994E1,5.2440838E1,3.8764507E1,1.6767487E1,4.343323E1,9.007607E0,3.983609E0,3.47809E1,9.468561E0,7.2989244E0,1.8605961E0,2.1230128E0,2.1801393E0,7.288422E0,1.9690968E0,5.329828E0,2.0574744E0,3.2723534E0,2.126348E0,1.1460052E0],"tree_param":{"num_deleted":"0","num_feature":"510","num_nodes":"21","size_leaf_vector":"1"}},{"base_weights":[-4.119106E-1,-5.5246282E-2,8.6530656E-2,6.611539E-1,-4.256235E-1,8.244659E-1,-3.0898688E-2,-5.0569605E-2,1.6958287E-2,9.65578E-2,3.594618E-3],"categories":[],"categories_nodes":[],"categories_segments":[],"categories_sizes":[],"default_left":[0,0,0,0,0,0,0,0,0,0,0],"id":49,"left_children":[1,-1,3,5,7,9,-1,-1,-1,-1,-1],"loss_changes":[5.818448E0,0E0,5.867939E0,1.7341304E0,5.9310925E-1,8.848982E-1,0E0,0E0,0E0,0E0,0E0],"parents":[2147483647,0,0,2,2,3,3,4,4,5,5],"right_children":[2,-1,4,6,8,10,-1,-1,-1,-1,-1],"split_conditions":[8.0392796E-1,-5.5246282E-2,5.2886585E1,5.7289207E1,2.6157234E0,7.9333105E0,-3.0898688E-2,-5.0569605E-2,1.6958287E-2,9.65578E-2,3.594618E-3],"split_indices":[7,0,105,224,234,222,0,0,0,0,0],"split_type":[0,0,0,0,0,0,0,0,0,0,0],"sum_hessian":[8.137065E1,6.3387917E1,1.7982733E1,8.337432E0,9.645302E0,7.2646675E0,1.0727643E0,8.634144E0,1.0111578E0,5.971477E0,1.2931904E0],"tree_param":{"num_deleted":"0","num_feature":"510","num_nodes":"11","size_leaf_vector":"1"}},{"base_weights":[1.4722978E-1,-2.6073998E-1,6.3723224E-1,3.4265414E-2,-5.170281E-1,-3.7265148E-2,6.7941093E-1,-4.728523E-1,4.0075204E-1,-5.3832795E-2,7.737744E-3,-3.29174E-2,7.080984E-1,-5.2874774E-2,8.696699E-3,-1.3836795E-1,6.13098E-1,-7.3717306E-3,7.342843E-1,-4.1019555E-2,2.0512836E-2,7.721497E-1,-3.4431074E-2,-8.595349E-3,7.597432E-1,4.225948E-2,8.668767E-2,-1.2923003E-4,7.820913E-2],"categories":[],"categories_nodes":[],"categories_segments":[],"categories_sizes":[],"default_left":[1,0,0,0,0,0,0,0,0,0,0,0,0,0,0,0,0,0,0,0,0,0,0,0,0,0,0,0,0],"id":50,"left_children":[1,3,5,7,9,-1,11,13,15,-1,-1,-1,17,-1,-1,19,21,-1,23,-1,-1,25,-1,-1,27,-1,-1,-1,-1],"loss_changes":[2.2253235E1,4.6297007E0,2.403717E0,5.634176E0,4.5571232E-1,0E0,1.6455593E0,4.4490647E-1,2.093631E0,0E0,0E0,0E0,1.032402E0,0E0,0E0,6.232965E-1,2.2108827E0,0E0,1.0327244E0,0E0,0E0,6.5608025E-3,0E0,0E0,7.669411E-1,0E0,0E0,0E0,0E0],"parents":[2147483647,0,0,1,1,2,2,3,3,4,4,6,6,7,7,8,8,12,12,15,15,16,16,18,18,21,21,24,24],"right_children":[2,4,6,8,10,-1,12,14,16,-1,-1,-1,18,-1,-1,20,22,-1,24,-1,-1,26,-1,-1,28,-1,-1,-1,-1],"split_conditions":[3.7678874E0,7.430648E0,5.638546E-1,3.9533596E1,7.535358E-1,-3.7265148E-2,3.589124E1,4.598035E0,-8.9198136E-1,-5.3832795E-2,7.737744E-3,-3.29174E-2,3.9970837E0,-5.2874774E-2,8.696699E-3,2.035694E1,8.3355576E-1,-7.3717306E-3,1.4776008E0,-4.1019555E-2,2.0512836E-2,3.9795036E1,-3.4431074E-2,-8.595349E-3,3.527358E0,4.225948E-2,8.668767E-2,-1.2923003E-4,7.820913E-2],"split_indices":[15,256,485,14,135,0,139,162,6,0,0,0,324,0,0,2,126,0,131,0,0,11,0,0,154,0,0,0,0],"split_type":[0,0,0,0,0,0,0,0,0,0,0,0,0,0,0,0,0,0,0,0,0,0,0,0,0,0,0,0,0],"sum_hessian":[1.09487236E2,5.999994E1,4.94873E1,2.8295807E1,3.1704132E1,1.6698977E0,4.78174E1,1.1748647E1,1.654716E1,3.0698435E1,1.0056978E0,1.032781E0,4.6784622E1,1.0732552E1,1.0160949E0,4.774269E0,1.177289E1,1.4573798E0,4.532724E1,2.5567749E0,2.2174945E0,1.0261651E1,1.511239E0,1.2930012E0,4.403424E1,3.3523247E0,6.9093266E0,1.2830724E0,4.2751167E1],"tree_param":{"num_deleted":"0","num_feature":"510","num_nodes":"29","size_leaf_vector":"1"}},{"base_weights":[1.1213868E-1,5.097735E-1,-4.0634772E-1,2.9787466E-2,7.475932E-1,1.2632066E-1,-5.2206606E-1,3.126019E-1,-4.384165E-1,7.701454E-1,4.7278937E-4,-4.471172E-2,6.042795E-1,-5.447052E-2,1.7676672E-2,-1.4495447E-1,7.9170513E-1,8.219137E-3,-5.218191E-2,8.021202E-2,2.8335273E-1,9.44437E-2,-3.266555E-2,-4.8334196E-2,4.2704847E-1,-3.03988E-5,9.7311E-2,6.21046E-2,-3.3922113E-2,5.725624E-2,4.3917466E-3],"categories":[],"categories_nodes":[],"categories_segments":[],"categories_sizes":[],"default_left":[0,0,0,0,0,0,0,0,0,0,0,0,0,0,0,0,0,0,0,0,0,0,0,0,0,0,0,0,0,0,0],"id":51,"left_children":[1,3,5,7,9,11,13,15,17,19,-1,-1,21,-1,-1,23,25,-1,-1,-1,27,-1,-1,-1,29,-1,-1,-1,-1,-1,-1],"loss_changes":[2.3011545E1,7.1742725E0,3.059537E0,3.040787E0,7.01931E-1,2.8664913E0,7.305994E-1,3.239678E0,4.1952217E-1,4.0883827E-1,0E0,0E0,2.079227E0,0E0,0E0,1.7813317E0,1.0230055E0,0E0,0E0,0E0,1.0653288E0,0E0,0E0,0E0,1.7306411E-1,0E0,0E0,0E0,0E0,0E0,0E0],"parents":[2147483647,0,0,1,1,2,2,3,3,4,4,5,5,6,6,7,7,8,8,9,9,12,12,15,15,16,16,20,20,24,24],"right_children":[2,4,6,8,10,12,14,16,18,20,-1,-1,22,-1,-1,24,26,-1,-1,-1,28,-1,-1,-1,30,-1,-1,-1,-1,-1,-1],"split_conditions":[-2.3030567E-1,7.394493E0,3.79516E1,1.906363E1,7.550733E0,3.4510914E1,9.997685E-1,4.4806465E1,-8.013611E-1,5.591699E-2,4.7278937E-4,-4.471172E-2,4.4644703E1,-5.447052E-2,1.7676672E-2,4.4513515E1,-2.1479805E0,8.219137E-3,-5.218191E-2,8.021202E-2,4.0258865E1,9.44437E-2,-3.266555E-2,-4.8334196E-2,2.5767708E1,-3.03988E-5,9.7311E-2,6.21046E-2,-3.3922113E-2,5.725624E-2,4.3917466E-3],"split_indices":[465,409,184,308,273,181,465,207,363,7,0,0,280,0,0,71,217,0,0,0,0,0,0,0,0,0,0,0,0,0,0],"split_type":[0,0,0,0,0,0,0,0,0,0,0,0,0,0,0,0,0,0,0,0,0,0,0,0,0,0,0,0,0,0,0],"sum_hessian":[1.0961063E2,6.204455E1,4.756607E1,2.0929094E1,4.111546E1,8.472819E0,3.909325E1,1.3254918E1,7.6741757E0,3.9868393E1,1.2470658E0,3.8810287E0,4.59179E0,3.808017E1,1.0130837E0,7.136662E0,6.1182556E0,1.0616661E0,6.6125097E0,3.6803223E1,3.0651689E0,3.3523574E0,1.2394329E0,4.581389E0,2.555273E0,1.3262416E0,4.792014E0,1.9888444E0,1.0763245E0,1.4935789E0,1.061694E0],"tree_param":{"num_deleted":"0","num_feature":"510","num_nodes":"31","size_leaf_vector":"1"}},{"base_weights":[-1.2969993E-1,-4.8439515E-1,5.402667E-1,-5.264082E-1,-8.2966335E-2,-4.6536207E-2,6.9370484E-1,1.7396552E-2,-5.442943E-2,-3.0730867E-1,5.4828286E-2,-3.3376377E-2,7.5271434E-1,-4.0702567E-2,-1.326008E-1,5.0452177E-4,7.923204E-1,1.9730987E-2,-3.4462556E-2,9.120717E-3,8.228492E-2],"categories":[],"categories_nodes":[],"categories_segments":[],"categories_sizes":[],"default_left":[0,0,0,0,0,0,0,0,0,0,0,0,0,0,0,0,0,0,0,0,0],"id":52,"left_children":[1,3,5,7,9,-1,11,-1,-1,13,-1,-1,15,-1,17,-1,19,-1,-1,-1,-1],"loss_changes":[2.1484608E1,9.5005035E-1,5.166027E0,7.60519E-1,1.1271596E0,0E0,1.9267025E0,0E0,0E0,4.4202626E-2,0E0,0E0,7.7896404E-1,0E0,3.1498033E-1,0E0,4.6227932E-1,0E0,0E0,0E0,0E0],"parents":[2147483647,0,0,1,1,2,2,3,3,4,4,6,6,9,9,12,12,14,14,16,16],"right_children":[2,4,6,8,10,-1,12,-1,-1,14,-1,-1,16,-1,18,-1,20,-1,-1,-1,-1],"split_conditions":[7.935716E-1,8.660254E-1,3.7103817E1,3.936858E0,3.988654E1,-4.6536207E-2,3.5329403E1,1.7396552E-2,-5.442943E-2,1.9724203E1,5.4828286E-2,-3.3376377E-2,3.8050808E1,-4.0702567E-2,3.9703533E1,5.0452177E-4,-5.4524046E-1,1.9730987E-2,-3.4462556E-2,9.120717E-3,8.228492E-2],"split_indices":[7,209,212,18,0,0,34,0,0,2,0,0,133,0,0,0,6,0,0,0,0],"split_type":[0,0,0,0,0,0,0,0,0,0,0,0,0,0,0,0,0,0,0,0,0],"sum_hessian":[8.830922E1,5.7921352E1,3.0387863E1,5.2151863E1,5.769489E0,3.7536504E0,2.6634212E1,1.081383E0,5.107048E1,4.6353025E0,1.134186E0,1.1936903E0,2.5440523E1,2.1044233E0,2.5308795E0,1.3365698E0,2.4103952E1,1.0173242E0,1.5135553E0,1.1721606E0,2.2931793E1],"tree_param":{"num_deleted":"0","num_feature":"510","num_nodes":"21","size_leaf_vector":"1"}},{"base_weights":[1.4923573E-1,-2.7309534E-1,5.660191E-1,-4.4995454E-1,1.13931805E-1,7.3148555E-1,-4.904938E-2,-5.146013E-1,4.2343866E-2,-1.50696635E-2,7.786744E-2,-3.8586378E-2,7.907495E-1,1.888374E-2,-5.4154932E-2,1.1700866E-1,-4.463335E-2,2.597341E-2,8.0087416E-2,-1.0051824E-1,4.6368113E-1,3.9318044E-2,-3.371511E-2,7.000254E-2,9.994354E-3],"categories":[],"categories_nodes":[],"categories_segments":[],"categories_sizes":[],"default_left":[0,0,0,0,0,0,0,0,0,0,0,0,0,0,0,0,0,0,0,0,0,0,0,0,0],"id":53,"left_children":[1,3,5,7,9,11,-1,13,-1,15,-1,-1,17,-1,-1,19,-1,-1,-1,21,23,-1,-1,-1,-1],"loss_changes":[1.923341E1,3.7825136E0,9.952532E0,2.341786E0,1.5462811E0,3.4736156E0,0E0,7.747431E-1,0E0,9.617535E-1,0E0,0E0,3.804207E-2,0E0,0E0,1.0281732E0,0E0,0E0,0E0,1.1629246E0,3.7677312E-1,0E0,0E0,0E0,0E0],"parents":[2147483647,0,0,1,1,2,2,3,3,4,4,5,5,7,7,9,9,12,12,15,15,19,19,20,20],"right_children":[2,4,6,8,10,12,-1,14,-1,16,-1,-1,18,-1,-1,20,-1,-1,-1,22,24,-1,-1,-1,-1],"split_conditions":[2.2270132E1,8.660254E-1,4.5980247E1,7.7357078E0,7.420318E0,1.750053E1,-4.904938E-2,-7.9653664E0,4.2343866E-2,5.5297432E1,7.786744E-2,-3.8586378E-2,1.4579919E-1,1.888374E-2,-5.4154932E-2,5.5297432E1,-4.463335E-2,2.597341E-2,8.0087416E-2,5.3103645E1,3.9985027E1,3.9318044E-2,-3.371511E-2,7.000254E-2,9.994354E-3],"split_indices":[376,481,408,356,222,444,0,387,0,343,0,0,23,0,0,190,0,0,0,479,0,0,0,0,0],"split_type":[0,0,0,0,0,0,0,0,0,0,0,0,0,0,0,0,0,0,0,0,0,0,0,0,0],"sum_hessian":[1.0738979E2,5.3511143E1,5.387865E1,3.6616135E1,1.689501E1,4.684901E1,7.029643E0,3.4475155E1,2.140977E0,1.4967678E1,1.9273318E0,2.082127E0,4.476688E1,1.0503331E0,3.3424824E1,1.20162735E1,2.9514048E0,1.3362657E0,4.3430614E1,7.819692E0,4.1965814E0,2.3192873E0,5.500405E0,1.9833404E0,2.2132409E0],"tree_param":{"num_deleted":"0","num_feature":"510","num_nodes":"25","size_leaf_vector":"1"}},{"base_weights":[-4.0068665E-1,3.8988873E-1,-4.8974288E-1,-4.1852586E-2,9.213524E-2,-5.24511E-1,3.3423865E-1,-5.3682256E-1,8.941731E-3,1.5304477E-3,5.209593E-2,9.007446E-3,-5.4888833E-2],"categories":[],"categories_nodes":[],"categories_segments":[],"categories_sizes":[],"default_left":[0,0,0,0,0,0,0,0,0,0,0,0,0],"id":54,"left_children":[1,3,5,-1,-1,7,9,11,-1,-1,-1,-1,-1],"loss_changes":[5.5677576E0,3.9467313E0,2.1543484E0,0E0,0E0,5.5194473E-1,1.949574E-1,5.4491806E-1,0E0,0E0,0E0,0E0,0E0],"parents":[2147483647,0,0,1,1,2,2,5,5,6,6,7,7],"right_children":[2,4,6,-1,-1,8,10,12,-1,-1,-1,-1,-1],"split_conditions":[-4.5308914E0,5E-1,4.6924944E0,-4.1852586E-2,9.213524E-2,9.986668E-1,5.470435E0,3.3051248E0,8.941731E-3,1.5304477E-3,5.209593E-2,9.007446E-3,-5.4888833E-2],"split_indices":[149,5,248,0,0,330,273,103,0,0,0,0,0],"split_type":[0,0,0,0,0,0,0,0,0,0,0,0,0],"sum_hessian":[7.536903E1,7.288561E0,6.8080475E1,